"cell_id","LSI_1","LSI_2","LSI_3","LSI_4","LSI_5","LSI_6","LSI_7","LSI_8","LSI_9","LSI_10","LSI_11","LSI_12","LSI_13","LSI_14","LSI_15","LSI_16","LSI_17","LSI_18","LSI_19","LSI_20","LSI_21","LSI_22","LSI_23","LSI_24","LSI_25","LSI_26","LSI_27","LSI_28","LSI_29","LSI_30"
"cell_22",38.2370995930643,19.4766415186868,-7.61419841005913,1.31533942923343,0.0353648107131704,-1.38669825264256,-2.19895782120509,0.693918015699881,-1.15765942599247,0.944024408583694,0.471580582509704,4.18586845627826,-3.52539631052,3.1555594793883,1.79817763337281,-8.87879624671417,-0.439448024991439,1.51013024459186,-3.1899099120034,1.71946989954829,3.30591534230699,-5.52381654491214,2.19564980495811,0.394630974180975,1.44709544231159,2.91266568547232,5.1296185882506,3.86966181660708,3.39675857845871,-0.370380689374881
"cell_27",45.7811839415672,21.0349498768306,-5.97008040243862,1.92516052019303,0.668326562628004,-7.18001293506084,1.062447451314,-1.49582762969923,-3.57246100998636,-0.558007358132109,2.45141870391131,-0.89857352478081,1.48695310857544,-0.931832090949479,0.863084191069119,1.62811539550444,1.12350828646783,1.08998502174198,-0.994373818710381,2.10421344965574,-3.34377502294761,-1.13334239957427,-2.27165530674328,-1.39540819299237,1.89463303562355,-3.59902596634215,0.840896152719082,-2.85701746365345,-0.277810356822399,-1.17417982418603
"cell_38",39.8176227038179,17.9567521237995,-7.26371625281405,0.809838057776324,-0.209621797183141,-10.8297149063609,2.61924779303095,-0.357698959575371,-2.92282027331635,-0.519374802135365,-2.19351205369091,-1.90288067968491,1.89892169756914,0.551781360838176,-4.01328974876558,4.57770493144348,2.96978455824479,-3.36215886924345,1.2674218197434,-0.241704762553507,-0.521701413857591,0.678158147163408,2.08433265809273,0.471650025577506,2.08965090869495,8.12735151192884,2.87393270296915,4.75096209715525,2.68215486995277,-0.752069200892759
"cell_46",22.6202540643807,-1.93111655792751,10.2975541388369,3.983052111636,2.58787901649465,1.08932926757487,-2.18523442995705,-0.269556622638878,0.142467207574113,1.21460392102226,-0.0151262420478696,5.27034092824748,2.409145266223,2.04737405382051,-1.43731641829897,-0.669279428608384,-4.22154494034124,3.98512081181277,2.30672605968816,2.94759512260537,-2.55683998273199,-2.18615820812198,-1.1153141235041,4.71998443052319,-1.05982405423919,-2.73748143066306,-3.49029197582771,-2.15009073422192,1.68793637214273,2.3393292378853
"cell_63",28.5376922445359,12.4525601924649,-1.58609522486708,2.48544762606413,0.55479146703619,-1.22414959851089,-2.13575444397116,1.7108718144873,1.80360535130944,-0.201421802836272,6.47580945064149,1.82696640842814,-0.960023905117507,1.706464550925,0.450161361050829,-1.4655686313307,-3.67308007401556,-0.0242290292379074,3.07165903131907,0.69840222833648,-0.796019637034955,0.737543443063383,-4.86001730328729,-0.458750452273753,0.316249912628869,0.837491278185317,5.84361400081029,-5.97988162211912,-0.390438440684461,-0.657258453098405
"cell_80",29.296313676145,-2.95401107830889,14.2352004102158,6.52154824118224,2.93423182096278,-1.90040916822553,0.912386233335195,4.49558391481666,-2.64716919634545,2.75307884797917,-4.30863844704704,1.21945466587435,-2.68198473985839,0.986917367253735,-2.22079970389441,-3.28329289101966,1.66703975126721,5.27924910439418,-1.87967571003531,-2.77988294972049,-4.01448542727589,-1.19308040737939,2.09391233893024,-1.29454114975475,3.09773666744136,3.00359177231927,0.0991791821919253,-2.47843423602168,2.84936379474238,-0.867865471896263
"cell_83",42.2842729704645,17.9380181552057,-5.88124275163984,1.62043416277339,-0.646509571037395,1.65145763537483,-3.20523300928667,-1.72938033188627,-2.7274577806847,4.31045630079635,1.17668075528607,3.44084863194285,-1.4134766108237,1.09941473781234,-0.166112276730423,-1.77994262588333,0.542026884615811,1.31169680287139,4.0848433321982,2.064365953791,-0.342595917594162,-1.26255410120528,1.27484418680336,6.39471674450443,1.11343627668427,0.525660694261093,5.14549511388154,-5.26445844256976,-0.796835813485913,-1.32500789135175
"cell_97",28.6325914972877,11.0200787859869,-4.03474732665531,3.90351526304203,0.172600299040967,-6.61390972844723,-1.71816966192399,1.15114987951583,-2.28932486414474,1.18509335281513,3.86755586192838,1.30063930145497,0.596926469939141,2.78991261691617,0.254900165462639,2.17336279320412,-0.180492700335285,1.26842850703489,0.875344600891516,-0.286387302672117,-0.164356679697877,-1.2993930907591,1.94647188675028,3.84522113829149,2.15190490616896,1.2908877913862,-1.85236113221036,-0.16124735077652,1.77014350822128,-2.35992028167857
"cell_141",21.6775196516377,-9.44285300626879,-4.13993006992893,7.76805989759404,2.88587786560306,-0.713908008834169,-4.53452630344657,4.09013953063095,-3.69956126909025,-2.79494136193894,-3.00658753896802,5.13865349211435,-2.61764875642064,-0.344332009067293,-1.53187260355394,3.46654807326484,2.68454496552726,-2.57207042717897,0.63749794576532,-1.63948069202706,2.20666352318705,-1.62937495207988,-1.48697034407037,-3.94831020546952,4.31777491533694,-1.3697225221632,2.42056958995815,1.24177313348551,-1.35319297152299,-1.87478880237682
"cell_149",36.3345187608982,13.5449905110768,-4.73231310519156,3.87041562486107,-0.801894779085588,-5.9200163138617,-4.69745853811275,3.23533589053135,-0.223762788406063,-1.99211246354656,1.36515727885338,4.12337681594627,-2.73838118217612,0.35635008514811,6.01350742007088,-3.63859304136267,0.337272704181591,-2.39471514104451,1.61464095073616,1.71119148441224,-0.350711470088049,-4.88160054631731,3.40343645220861,-3.29209094014104,-1.10375594287897,3.50884860617507,-0.463688805268419,3.23476484518221,2.43348711124135,2.07375908363908
"cell_160",23.9717729196577,-2.04865681333762,6.92376471332322,1.86855457675049,-0.842225425735649,-1.21710706991482,-0.175483344412037,8.21476361473495,-2.3371180156268,-2.22371640888081,1.2581055174002,-0.740191015213928,0.920548337045348,5.36387856367181,-3.829981585449,-0.799058256628455,-1.02903994313441,-5.52282985433237,-3.50383675328999,-0.61660106340185,0.0931206825398927,3.66544404657435,-0.894281317641127,-5.43572186530711,0.546700904629923,-1.21436596628679,0.575738977994732,1.63265048935516,1.08643539052084,-1.81949390343
"cell_163",11.8305061314346,-5.18836620963366,-0.360216710301461,6.05603033139622,-4.39459224036229,0.478832500247717,-2.33405064666592,1.88758376883093,-0.635241973139708,-0.208720236640442,0.190427700663297,-0.663027501322586,0.0328323123768235,-2.72247619491944,2.26444552466847,1.11810081488726,-0.410347711096403,-1.20061861596522,-2.91205011857984,-1.99660146530314,0.611600760605663,2.04836085841917,3.70587080165103,-0.378887127436564,-2.3443246744125,0.127633000658744,-0.685897778455325,-1.72218315902751,-0.105939349077056,2.53578650533335
"cell_170",22.3291691923512,-9.02225094016578,-2.48822625674304,12.6099815140917,-12.209046455398,3.06443886592884,-3.1144728216874,1.98902496510532,-2.3186909202204,-1.08366015010994,3.12777861469745,1.48285610201792,1.38278695246194,2.28892578419968,4.64542744057002,-0.793080703052242,-3.70701128319106,-3.35922399887689,0.986125325669215,1.92305435468763,-1.51069138443321,2.44815189376117,1.23791025140567,-3.05672501906837,-0.71554649464741,-1.75623088792829,4.57214995214729,1.18026860169838,2.56454363909859,-0.523088338745552
"cell_185",25.1978576166639,-10.3544747691575,-2.73471042205625,5.27026261950669,0.174092897007909,0.167018537637663,-3.48750290227545,4.14738027742798,-3.66223757505438,-1.81956576761514,-2.33150782752419,1.76029943691573,-0.18520761381612,0.331263156831432,6.16952192931857,0.436224996775534,-2.92244031405859,-1.4779654405245,-4.2248849996159,3.60577106580605,-4.25453809530613,1.60732005794944,-0.206745502622139,2.23726907669552,-0.809292895516289,-2.9510324437337,-6.40747785308472,3.18847633882639,0.913357630815618,-0.381324746305529
"cell_199",18.7526193065976,-2.00398148579165,7.88066236158636,4.6098938993892,1.72197349300046,-0.116204418334812,-4.1036547290555,-0.967027352104961,2.55096006156869,0.712745859424544,1.93983606797914,1.38557561299021,0.355810610811948,-0.42826603044103,-1.99870901816822,-1.55484513893352,1.94412658942336,1.45845813118356,2.33206542820552,0.660465265338923,0.161054142257529,-1.59431797680918,2.91448680484108,1.99609590857937,-1.74199510455111,-1.92665150291601,-0.204471472875051,-1.56681915532678,0.683471181996875,-1.16942477630376
"cell_220",11.8248523721912,0.00955015167971813,5.23548829285087,3.2752653742104,1.9763462026309,-0.485630321193608,-2.68765941490174,-0.788545965092648,2.44502954405467,2.40925457737365,-0.543877351232294,3.22340822158084,-0.98112004287171,1.24426732952341,0.358294639044861,-1.26988311698262,-1.18109078262001,1.05247168226326,-0.344088918470027,0.387929539669162,-1.65223484055917,-2.6243259409087,2.11696532398924,0.802825381873561,1.41853808875169,0.654085689732977,-2.63687794514943,2.83885782903777,1.07121486429422,0.882052006516014
"cell_226",33.5107643005727,14.3498126592115,-4.13889936921664,1.38727452204715,-0.0580179207238185,1.22318320606898,-4.32355083861477,-3.56071322276231,-3.17706057522184,5.87555554809276,1.36147811163286,-0.0137625894139853,-2.18981851821439,-5.04348017081546,-0.412993233253507,-4.8489211679068,-1.660413315977,-0.308565217239339,-4.20209210063458,-2.56047195796044,3.95687255543983,1.69100847256854,-1.87909116406223,-0.395025192546174,3.2178884861718,0.0172285289662946,2.46020546755889,-4.51041534184191,-4.24749906562089,3.3460641216631
"cell_241",28.6525760184177,-3.77356812702246,12.4490702867423,4.47127832352513,4.77718700916772,-0.686005315972884,-0.678872205257496,4.51131587018047,-5.2619872975732,-3.15435406467548,2.40791053965009,-5.09577617102637,-5.0990498696964,-1.61906573376521,1.31473009464326,2.47688915289778,-2.32643213777081,1.82556675599389,-6.24848902870866,0.375771597409505,0.430682555888333,-0.342720251675431,2.60075444812071,-1.97676231373672,-3.44110098232292,-1.05357995477072,1.90758344240935,1.56010025423163,2.59736976199465,-3.39446837822151
"cell_247",37.403721487786,10.8669459656163,-2.56097477949859,3.44250368628701,0.61624792923351,-7.77488938786397,-3.41477340772524,0.60101994219227,-3.64981595190718,-1.74196511572605,2.61688597866765,-1.49793540763441,0.446586723760995,-3.38116422407394,1.90096615252039,4.10470130083043,4.46949375011678,-3.178743161235,8.41103347175051,1.45375798668312,0.83219650734133,-3.05095755237017,4.3059534557209,2.82685107443795,-2.36129415559443,-3.15174344112901,1.93308911909582,-1.84180317324839,-4.11016293435884,-2.44938907452358
"cell_251",40.1224076426817,-0.482103409760059,18.7091796786496,6.34645693819954,5.49804045184505,2.37264397360489,-1.11985702000767,-8.28244280693511,1.42150715871297,-3.57205544569696,0.461017429515829,2.93311358683892,3.50015654554391,3.27241750695078,-6.34478562404636,-3.00883385144157,1.86077624606175,0.164545945686476,1.09440469365628,5.13065342578002,-4.68671360206782,1.24206790857337,2.14885095115462,1.82226853108093,-2.75547710174723,-4.21509031259059,1.04901619328808,-0.676818929167635,-1.1050617084074,1.73034756869247
"cell_269",45.0393322545369,15.9876577346675,-4.05992125153604,-4.79711000959275,2.26071587775349,18.3345685222845,-4.75831376201372,-1.90468700704988,-6.91862496508948,-1.04535201960488,-0.00905394758733197,-0.938203857390688,0.971655287841823,-5.45370854859611,-2.21929859264003,5.37375021040292,2.82494360324139,6.82573580204252,-1.90331812840676,2.70525354514282,-1.784292302002,-4.1253034882527,-2.28463600164176,-5.28412421844451,-3.98656292344317,2.48662270512248,0.0613785962548824,-0.886543588098894,-0.793458984399894,6.92659805060822
"cell_283",50.1880360587548,21.2692765820004,-5.89726872487198,-8.69176013012997,2.46850940792864,27.8289610269232,-1.94955099868263,1.08194330440705,0.287389071821863,-2.40560221152624,-3.34454327393854,-0.603859334668759,-3.41476011399557,0.961902196472148,-3.37282433598203,4.25771769375482,2.65532176481975,1.03673549913044,-0.130767090583055,0.356851972027373,1.61039512840984,-7.28756651397431,0.567736921465882,1.29880285035689,-1.70942579548939,2.55611546736073,-2.25065219406966,6.13444703464091,-1.6867597758389,-0.112292242982419
"cell_288",25.7489585786143,8.0929713887103,-0.34012364157773,2.08003611742868,-0.0563829743376937,-6.79950869299445,1.83137825025672,0.744586000770593,-0.891075566344444,-2.94238445481253,-0.949947046395266,-1.60403325945239,0.18683876212786,-1.81744902994801,-0.818022033384298,-0.175299443223685,0.976522479513914,-1.08722068666734,0.458363878059811,0.546352416668089,-3.81199097786257,-0.0993070956152641,0.515967451593383,-0.257925891204572,4.80744024642614,-1.48518297655766,-0.315890350216616,1.84821756251286,2.40102230765608,-0.941395180260294
"cell_314",47.7487151833726,18.7232763672677,-4.01289236751815,-5.49074517501959,1.33271280662192,25.2703029121801,-3.05208501395505,3.19064623262591,-3.2553250555762,-2.02786107080986,5.2095155807864,1.52625072708948,-3.73332941650692,-1.56702336943645,-0.504013775978704,6.58316458979346,-1.40693516942162,-0.228305357782872,1.77835413652686,-1.47224803877,3.30518748408734,-5.27793509765756,2.07390939918518,5.40101362518948,-2.1703797497541,-2.56928057408545,5.56357456327752,-0.00739261847179868,-1.58155650683957,5.90426567667594
"cell_326",49.3587272784329,13.4533868823024,1.12433895514896,-2.49844354661453,4.16801414214036,19.8631757086151,-4.47966806371465,-1.26176327554543,-0.616221541537836,-3.70329108155876,2.46325831170521,2.05783923850688,1.42931189334497,4.14128014920216,-2.46832351659656,-0.68002551256983,0.160152623250175,-0.927503644122687,2.81182155634285,3.45601936885607,-1.597854735891,-7.60238363440984,-0.993787290895677,2.23882310437188,-7.51557590223395,-2.71715916686083,0.897222006428139,2.16871590123134,-0.859891670235095,6.24733806104075
"cell_333",44.2882964349505,20.0110444845486,-6.63235813989692,3.08106189457011,-1.7486987330027,-9.79069737510681,3.14143022284357,-3.23926167832407,-2.95449761587372,-4.37073751391646,-2.78968754647947,-0.368356442725451,3.00291819037371,6.02234555450773,-4.23956619733749,-0.150082426796943,-1.92065563763055,1.12363756716369,0.733722845840825,-1.96591230611134,-0.423147528125063,0.888226031717557,2.2924888163765,-0.887734062933326,2.1741975069824,-3.07920168605765,1.55681238656589,-2.08966551162939,1.3112276563248,0.631856426620564
"cell_334",30.4573457809732,-4.51159750626349,12.4025438401522,4.60910352988038,3.10216240840474,0.868444453889384,0.0474473646108487,5.25026166322854,-4.28837783216683,-1.68621099425326,2.14301215917068,-0.0347628252243678,-11.2335120501341,-1.97168097216245,5.40534204198709,-3.07845525041659,-3.2548219061533,-3.39616180011832,-0.7099517681819,4.37664239294053,2.36069124067491,-1.82877329969567,-0.18009715728004,-1.0336251771339,-1.07934004375234,4.61052406664048,-1.20689415635231,2.41963931345428,2.52396870938285,-0.264025428145123
"cell_338",38.4056320541999,14.8263381331004,-3.54850423467026,1.83056361788384,-0.186024047047004,-5.88388841575476,0.64247309319528,-4.71747527924762,1.69554538395849,-0.660413031393564,-3.77445840810742,0.0125342250266563,-3.05345360128542,-5.08007926153463,-0.52898123112498,-2.27158125235187,0.442390525237233,1.86417240997122,1.52542335912504,1.18936869326907,-5.86999446207928,6.05743924933971,-1.54198246538393,2.89452599270478,-0.239728400077158,-0.753544138807494,0.994146193938633,-7.41709820710555,2.69810925896191,-0.32326782517376
"cell_364",31.0137080283351,16.3662082948058,-4.67274167703963,2.01041595709792,0.617243688661961,-1.73413251034591,-2.83677525059998,1.50695860378618,-3.71675479321511,5.45169158446394,2.26279663717913,1.71223097346386,-2.83787783655466,-0.928515623797807,-1.16995901857325,-2.71697011164867,3.99265024007573,3.41741063247728,0.534635450567513,1.67658513649345,3.03785767292373,-3.41399382484618,0.472949806953618,-0.0772219510722304,-0.743784895971214,-1.22479392517641,1.46739890610714,2.66199234404723,1.96870482809227,2.53551839444712
"cell_376",19.3503817092602,9.94940105705442,-2.89080823143633,1.58609301916313,-0.0492763900137871,-3.72631379563387,-0.578979622626556,-0.439191704690587,-1.43462811424508,1.03381066047773,-0.635028516742917,-0.171166298599676,-1.43583746519017,-0.349610309948302,-1.26569600187845,-2.07057632403166,-1.09022609490802,-1.46086966355797,0.783952128881891,-1.00868769361683,2.2171079435682,0.847448112328738,3.65352934299346,-2.9349752926168,-4.43403154607783,0.147284943565388,0.845422062290703,-0.360675341037522,-0.189074469120489,-1.62260429208777
"cell_377",34.0475305334625,-4.65905964215212,11.9716520021437,6.34696315114275,1.47665166031832,-0.0436957382880911,-1.92147743285888,4.8821804735492,-2.17922133211807,-5.76285025533985,2.13481113718268,-5.70442747359633,-4.79680205185542,-0.464503299039393,1.20350589337788,-1.17129822943435,0.346290187195129,-3.82897213892593,-2.45984097203923,-4.02368181075617,-3.98826096969945,-3.46577605519255,-3.50016158829275,6.52298969421745,-2.25283346525221,-0.523591919302502,0.379706943624964,2.49589112496469,-2.42363438295731,-0.354788083282076
"cell_379",25.3681406595163,7.20750592022634,-1.11763658511729,3.59274813889058,-0.902368809891177,-0.881790806045131,-3.65626883513278,0.0407932077543862,-0.268824276100042,1.48404919882023,3.08305889540011,-0.89401767962651,-3.02268652276665,-1.00172712418829,0.917411128271446,-0.00441528631167729,4.93203793398926,1.71257967350831,-0.759647249797794,0.399581562987731,1.04587900907236,-3.97641825866277,-0.139630427506548,-1.11940039872121,3.62817866059047,-1.09448419886157,0.554027552415719,2.1484558574664,0.010964392869326,1.19875172401684
"cell_392",33.0825520155521,12.1245252391722,-3.17340431410837,4.90733905919148,-1.84840849004776,-6.83004846429012,-1.32317177280247,2.91768178285968,-1.49799043376307,3.4242485357864,3.70365780420861,-0.0159137140636119,0.677773075257995,-0.800333305284763,6.55968375247954,-1.59520182019419,2.21022421374427,1.48775837948629,4.00808031767502,2.99906045203105,-2.16650810908008,0.907151024032306,-0.155033103706908,-0.650267053261563,1.26099628182615,-2.63761709866936,1.5854557903574,-0.723390077238443,1.43785093607778,1.20902937791696
"cell_396",23.9440348622658,-1.38794233247548,10.0684237248399,6.1804839001876,2.8808290017872,-1.15013843816401,-3.82657192576464,-2.79146156724053,1.88494761911797,3.41540637637515,2.79107416695969,4.35838196497398,-1.26033104063039,-0.263065588569336,-2.5042324169836,4.53749966589613,-4.00602261621556,-4.80007142831634,-0.495709202416518,2.12151346321529,2.183429877419,-1.56813606543485,1.1589973311199,-1.23415068085185,-3.21776550405051,-2.47955434198251,-3.82619288310404,-2.00103546882778,0.021446328490096,0.217669868813133
"cell_398",39.757753458676,-2.8892663681969,19.8722304498702,7.81096530235432,6.5237956696768,-0.727138009828495,0.0673109907275104,-4.95561037352051,0.677671329978734,-0.0293676094115658,-1.57146165694322,-3.83091092962605,-2.96839175420104,-2.33365931526912,3.85676460714737,3.72350637479264,0.408429516801681,-1.24012176641161,-1.21080061602229,2.00805594912006,-0.166545811959511,-0.637843945862112,-0.88071273919197,3.0722357522334,-0.0682176093326221,-2.49830214246588,0.649382237970033,-2.11906386826632,-3.9062619289542,-1.09797490993803
"cell_448",38.6036077666767,-2.75199722019707,16.1351287497025,6.34738059939161,5.70239304687658,1.06731616707502,-2.14171662908325,-3.49072447442542,3.36393514762948,-1.4491679167597,2.94383261296145,0.40615277074767,-0.166474281261402,-0.764371761803719,0.123969332821676,3.19773819151703,2.94903344992341,-0.328856172208623,0.694125973129474,-0.281230241369934,0.823549625322688,-4.93606665256785,3.29153311648531,-1.4752922340083,2.93495518480185,2.14479151703313,-0.321179419345056,1.4538986383809,1.09438145997082,-0.865685024405903
"cell_456",32.4465003657828,8.28911035494284,3.37261382221927,3.23158781353921,2.85041387061679,3.41995816992452,-3.42417467630007,-1.34645815800367,-1.37178668269958,-0.830536581607019,-4.1644103871703,2.6465974986006,1.02589943847631,2.5231679274784,-2.23212795380814,0.949663034552267,0.126070974601695,1.34884802106412,1.4695249056023,-0.806565326021867,-0.482784757948477,-0.719560349386418,-2.02542632126959,-0.768317331754223,-2.40907300572401,-0.909644166481035,3.61331854519819,-0.594378367295854,-5.82680217788566,0.0402315819036989
"cell_457",32.3826328527137,-2.58157098042733,12.6575845503585,6.30154928263275,4.25877378585084,1.31710910511363,-4.29054162028837,-3.73500280862922,-2.92753913225278,-1.34567097428761,4.26942124870505,-1.88817272048342,2.13559419612604,2.39089149291127,-0.852628678322137,2.40689289838552,3.54353836827053,-3.61454547901286,-0.426741951853986,3.84819356443087,2.0724089815928,2.5014205482067,2.66671037418289,-0.781915594483066,0.540346978291974,-0.172329953309136,-0.398211807665686,-4.28399576502548,-2.28079043350721,2.23264358081144
"cell_476",28.4392720745185,-1.78376151377235,10.0926805377032,2.70898619636375,0.92646544728366,1.86986241210875,-0.870848953029607,7.27300740536618,-1.3166232370508,-1.7618623199837,-0.250324775254263,0.706749257062487,0.42941737849615,4.05073675735074,-4.27299862125397,-2.1727207578642,-4.00625662399967,-3.59863463892417,1.68031078350692,5.96921007643206,4.22602528792864,4.25772047838663,1.4665722970089,-0.351593745230685,-0.419017836021127,0.978445087760148,2.77710304956059,-0.21723743386229,1.36050923745836,2.40223347813233
"cell_513",29.1543339231508,-3.38390695245014,11.7445065872545,4.78063395424682,1.18377298441799,-0.800423439209538,-2.16479153727407,7.90013435225197,-5.09765720013005,-3.03438772394633,1.19241954728215,-3.75879442957981,-4.51855596482774,2.58773256652781,-1.64659921643044,0.74248878226199,-0.0959014794601741,1.10043675984678,-4.76847389106219,0.769173364796118,-0.81828160057217,-5.21130687055613,-2.1583683721994,2.39010979997339,4.29076306609371,0.553805478355034,0.394927573211797,0.428579319515024,5.79876193074907,2.23944713533722
"cell_524",21.1689689440826,-7.02712151417309,0.0978584734142312,6.81552978397435,-8.96988204554357,1.15120446577962,-3.34555026588356,2.33466432248284,0.827514307775035,-0.205045913666407,1.31977167823516,-0.500623628403339,1.09867731919586,1.03345618378456,1.20182367561858,-4.2312823344036,0.525735802756045,3.59870052697355,1.8752789428241,-5.49822022662873,-0.0673852442659501,1.10007089461238,-1.44465030512131,1.04594255878681,0.510293619987062,2.49576671864275,-2.16557071254664,-1.22134379152779,-2.16048043836781,-1.04496324556575
"cell_569",50.5117126932,23.0564073393085,-8.27895150946327,-0.534385757523777,1.21665979439333,3.58872304083623,3.50804727767121,-6.00351165798192,-6.91394270264629,3.20322577002875,-2.26339215724619,-3.5066747345464,0.247881665994224,-3.9013896930132,1.63876464329706,-3.45472005618389,1.66944201466936,-1.72632024964215,-0.780984362325608,1.14992746092104,0.911116307733885,3.16134562142918,4.81331988248344,-4.17280698512115,1.70574953080422,-6.72379109080566,-1.18266239500698,-3.58013626616607,3.46711353594202,-0.74714818012344
"cell_570",37.6078452956227,-11.4998682653804,3.36793853085833,13.1540771092654,-11.5442078942664,2.31892377128628,0.0435772659910483,4.44925083255534,-3.83065976252108,0.850568219611369,-0.643524453957229,-1.47333919251152,-0.198840604332588,-0.844122382228971,-0.310472941646104,2.21438151493603,-2.20545632961217,3.8379841121523,-4.36637104468859,-3.06644784717142,-0.432230441430878,7.03184489083553,0.380468222393817,-4.27700046255904,-0.160073279545106,-1.31412984567689,-1.75154375377515,-4.25170172995295,0.966243192049194,1.40674731414371
"cell_573",46.0828134768034,4.41911936871343,-4.7486651684934,6.52144540925239,-8.00123254695529,-3.520034173354,-4.78167258560485,3.239610825274,-2.07650169076488,-5.20619711262797,-2.63488663257943,-2.05352010139403,7.79076307076414,-1.94200327697105,4.05050726342021,-4.02216496622977,-2.57866248987348,0.0354873397466321,0.0263093230827906,-1.96961351038782,-1.16642200294881,1.38977397414216,-2.50326748361973,-3.82963452185082,-0.662129193414761,0.80895482434982,2.50905929161811,-9.44618649372245,2.28839654856248,-1.25227076435249
"cell_599",14.6797447125405,-1.83495711611135,4.83504690151197,2.8619501177155,0.219458617854497,0.437124602550888,-1.83117244867711,-0.257023437489545,0.486989115584784,-1.6800280827121,0.401735473904772,0.204314174223906,0.0256704725381197,-0.991809348927117,-1.08293668365352,0.580686348821016,-0.659677146123964,1.26656670780822,-0.95634336569482,1.49279359141853,-0.874843040323682,2.40204229597426,-1.76481203337004,5.33203125156772,1.65513325079143,-0.445201026830045,-2.33435294639076,1.06923374857998,-3.36218244887317,1.05515710863686
"cell_633",36.8941210087749,-11.8710869813357,-5.18358440999984,3.61500519077331,1.49434230073223,-2.4164607174777,-9.01283668745852,4.68530171417993,-5.20862820889157,-11.9295719689729,-5.65959106098079,1.04749602583648,11.0600797005166,-2.43152096603415,5.32427498541229,-0.629309826694821,3.70812474151986,4.38484847834721,0.08967788756784,-5.92243837501998,2.12614495716298,6.12550724886516,1.64521672277793,0.225844593239403,-0.648449598278366,4.20358568642343,-2.5619694397197,-3.13937304666497,-3.3766758005815,5.64576918883608
"cell_663",16.8037670212575,-1.41218918376531,7.98078353728776,6.2231031384775,3.25653940153979,-2.42490710528365,-6.01404361642338,-0.0607545734249869,3.2851581558547,-0.471614167786599,0.923557580504963,4.07296636658138,1.85038617617873,1.16552714380942,-0.656195742468745,-2.02039283253165,1.29569723152512,-2.70943655958949,0.229105526245396,-1.36966900249611,-2.51436922442222,-2.63325220590442,1.56862109789287,0.863781469440625,-0.989759641081157,1.41862399688789,1.83231237655237,-0.112669048040879,0.858441750241373,1.22189710683832
"cell_668",37.5260059137696,15.0532461366932,-2.87135419418401,3.03744203283456,0.154673164182755,-4.9796604587326,-2.86976579475474,0.779915054452361,-3.13393146812607,4.41004631871353,0.807440553116441,-1.46764361648538,-0.057034224373408,-0.77431821537299,-0.681858071677252,-1.43583289798347,2.86312273715501,-1.14990884580724,-2.05545360390526,4.84877816701023,-2.66684901658014,3.89794069454941,-3.44702099560424,-4.29311864117112,1.22534821094641,-2.76295192067538,-3.88305296087419,-0.579203309704475,1.92084188984211,-6.80066200040516
"cell_682",19.2069175844001,-0.0830279127859975,6.02619148854777,2.18961683123608,0.381797450650639,0.198538327008835,-1.35577097433434,5.6323234702358,1.43731510187611,-2.46093431036913,0.878451029035001,2.90360771163141,0.0775954233625057,1.45652759662544,-1.29888093741581,-0.491803910591238,-1.74406890142404,-0.00814164229220203,-3.79162789663557,1.54121265873878,-1.29274386553725,-0.30760055798804,0.910238709696313,-3.77781062804718,0.359119717587447,0.369826153267314,-1.85911815471673,-4.49064723130376,0.251714032186122,-0.920838555418531
"cell_703",21.6584627626225,-1.23972642016297,7.94185244241397,5.96923101580007,1.65352384443127,-2.50548679867968,-6.65417396953132,1.73608017663079,2.78425798504284,1.47851490492662,-1.61427497171513,4.9166663180656,4.51775424388932,2.21466038842386,0.296701056819935,-3.02898476225938,-1.04595330304903,-0.0205944490683851,-0.0142725936400064,1.01709742369643,1.9177585778445,-0.448203316204026,1.89818451416344,-3.12646967086213,3.65869072395352,0.702325711623261,0.430980602809465,-0.106224957440802,1.65452413606743,0.0215291764177015
"cell_713",24.1428606380425,-1.51298521636449,10.0104428713098,6.14298729758229,2.82561034868085,-0.748891460687045,-5.01634426577677,-1.38462903061979,0.0620019379281508,3.25314329609658,-0.31452954851417,2.89989156317467,4.2768147262645,2.06007397079975,-1.54756258615869,5.40557102192555,-1.37825827180957,-3.55853984552876,0.498740857085911,0.0319254132482911,-2.43722117587254,3.54293435615831,-1.5915273238393,0.47784982058029,-1.45487751623627,3.29730636688298,-1.55036748540239,-0.0246345763409924,0.879364515596634,2.49841642820676
"cell_716",48.7996242328541,1.32686317334734,11.1147697429477,6.61023879439318,2.73443601179992,1.89711778155283,-1.44508227480055,-9.69086026864366,0.121628073025313,-1.30220671787564,-1.5966384606179,9.21762496792786,-0.835443225360136,4.87695993552481,1.19411479811746,-7.73405552285262,1.91222744898867,-0.104628093714112,-1.88966366826771,2.01028394517871,1.9730757834251,-2.28940635713381,-4.04504594688395,-4.15968559526177,0.0163982313001342,-5.43254242394579,3.80169863918997,3.73061610140564,-6.16391276999539,-0.418823007520418
"cell_717",42.4249347296401,16.8548700017288,-4.07863150087938,1.68629748879687,0.277563755285079,-3.99293533711334,-1.97806484330342,-0.998944788050537,-1.42369414587085,0.198475128143521,4.98745101242982,1.46413243410369,-0.0173690497102092,-0.804194341986153,-0.349231492266205,-4.69535348014685,-1.28206138388,2.52147615556084,4.42262744666139,2.04098234492337,-2.47174823164923,7.59489290465404,-0.308041651295928,4.41503881847923,-1.29735959473432,2.04321364409001,4.71614843580242,-2.84005552312085,2.96288694511167,-3.51819393190592
"cell_721",28.2042927790076,-1.80524999060878,10.1246372349494,6.27995149167578,3.12763607607831,-1.77997787857538,-3.62095605301404,-1.09122572855044,2.92992139470092,3.02460787365427,1.74670895615019,2.24214724587692,3.76256765512401,0.356301442595298,0.25027195096388,2.54411607225956,-0.929861021977137,-1.27562115837582,0.0108798454196708,-0.0469606049713695,0.659843041846777,-0.777256760982902,-2.41849288236813,0.604540226899074,2.33238896190923,-1.05016558274495,-1.80891633729252,3.09068645989351,0.412386970041094,-0.0870919122500478
"cell_726",13.3660913670289,-5.53747730190354,-1.55759671128306,5.0404292282438,1.22922059056651,-0.860485962234539,-3.2455606577131,2.02341918300378,0.652075527105837,-1.31890145798208,-3.59170475324478,2.46945993238484,1.7851526735331,-0.674760869490843,-1.70743488906565,1.0397019777762,3.13897494641648,0.277199995132666,-1.30834735330028,-0.743631673955876,2.13399098201617,2.14339221119001,-0.530984649265369,0.0874096662107261,2.51809778299568,1.79078433823229,-3.27693523907524,-0.464878637074972,0.936045710795601,0.0826780790233751
"cell_728",33.0470477947964,14.0483136232889,-3.78828577020101,2.84974114711919,0.0092025869511363,1.55591088617769,-2.97280944306623,-3.25950585323636,-0.859744278098845,5.59335379962833,2.7550442563554,-2.08861071734532,-0.775092233585252,-4.59515608027527,1.1682092718602,-2.90115225754854,5.90182218341015,-3.09853110895311,-1.38387017971974,2.21522178492491,3.48134534401677,0.562056011047006,1.5617435669608,-3.2722834763815,-3.03602222398457,0.651409340645408,4.00557464268588,-2.76410716168584,0.323009495456516,1.71068864762644
"cell_732",50.190377041196,20.7210691740733,-4.05629225650387,2.67581619544102,0.495350406663827,-2.1446070466092,-1.29327981964644,-2.84035135401818,-4.27009755573561,2.78419051526848,2.19266149132237,-0.149467693347672,-3.05966204380527,-3.77961435711931,0.20216475664321,-5.02425112667243,1.11821680486918,-1.60277102104523,1.28309107455922,4.6299682444758,0.107923342251508,-1.60628321688974,-2.06306254468672,0.499889846145503,-1.42430132030549,1.65810393090483,-3.14417907068218,-3.32056447038408,-1.95017253916961,2.00797096003235
"cell_740",22.1126182793749,7.07748448472963,-0.311769252860873,3.48027758654798,-0.383873489602899,-6.3028160157213,-0.0352706729667759,0.94337986881871,-2.31940715548709,-0.969945901795225,-0.545839934657273,1.14450761918051,-0.202997591748906,-2.96494232448112,-1.07922909124973,3.01083590697841,-3.49509267034301,3.28276929006311,-0.72682575662566,0.0199964609766693,-0.0250174742280158,-3.84260905803643,-1.00333219356002,-1.87730098690079,-2.53458907998973,0.236565381719604,0.184693925040245,0.889275972510149,4.23288775310043,2.95276291389999
"cell_741",41.2646103801422,16.742600409395,-4.40426158083526,2.70665382158004,-0.720135053156352,-8.68193643290088,-1.06312184143216,-2.83060643408257,0.788591433708595,-2.41062605887667,1.04343989468676,-0.52254146603392,-0.596336315817328,4.1974118871361,-3.00215960789244,6.01106485949199,-2.33000284960277,-4.34916039179734,1.38532428695926,1.3837267931152,-0.497308023808371,-4.0488631012839,3.48570544510464,-1.62941262064261,1.68090445113044,5.60677564737895,2.65184236793584,2.86502589335212,-0.907818634503744,3.44260440387258
"cell_746",12.6625422064101,4.03266997850284,0.920262903982727,0.815879250740112,0.828964154229631,1.57194350843177,-3.30253924740438,-1.50205267683699,1.06192867202392,1.26890484756432,0.340269317067371,0.418407680766295,-0.922276752555215,-0.501023404737943,1.42113013862972,-0.56425761169899,1.13056817917795,-3.64223299898821,-2.66311449576802,1.16602849201419,-0.132752614482292,2.93122307371902,0.632931419340649,0.220742630808433,0.0372713431819648,1.37583865151422,0.888874870561268,1.50866067848447,-1.36001791161265,-1.06171057613026
"cell_778",32.8900149740968,11.8854209144406,-2.89805735205168,4.62103164996805,-0.160959314025131,-6.69114742064863,-2.64081397352934,0.986327903115922,-0.291457065349127,-1.43391750612239,1.04175829602905,2.12339893702236,-2.72632921299971,1.97803368557299,2.09962893290067,2.6929617910708,-4.28435142618163,1.05311433564754,2.81319794158633,3.46132392216162,0.601007368777673,-1.44100828494013,-2.66404459990695,0.532566297690514,-1.13677521218517,-1.5257050291935,-0.0318683057344461,-1.51223207177296,-4.15015558174666,-3.97818201322873
"cell_796",31.6924484258502,13.771796817126,-1.10954835489229,-2.70047151726935,0.999201979704769,18.0378849063273,-5.12863388234317,3.76662458901335,0.0952349085427583,4.30973255794524,2.12822620273391,0.874196508810436,5.10567745051569,-3.3490423585734,-0.889660527263659,5.50039769174206,-4.53624256254745,2.83613271594033,1.43269314975291,-3.48690919096792,-2.27465077235338,1.73091203768387,-2.71455117756425,-0.132907627733148,-1.10842554416537,-1.91094411986848,0.280910240416942,-1.13110215642246,-1.23362545424778,-0.466046188635252
"cell_826",33.4218291713346,-4.06416436278613,16.3860215632316,5.79786001558599,3.45310586928722,-0.567705178339932,1.96410524359618,-0.0796830216732009,0.530953485869787,-0.40184117453987,2.0036338972626,-1.88213087821146,-5.89920477122132,-2.45737738216885,2.8946114824796,-1.34890639438258,-0.331997724615586,-0.792376453060795,1.79426961964651,-2.64155504939338,-1.22659401718935,-1.79724908039323,-4.41608793526734,0.115205826675368,-4.9193143254541,-1.22826951438333,0.963287618707839,-1.10232918856988,0.684432646324569,-4.40590929430917
"cell_842",39.5714426091294,17.1960708936682,-5.54271917224071,1.71209848116008,-0.525893952222981,-3.72347682362297,2.62057977835149,-2.78096190284676,-3.86641706141838,3.13517381894517,-0.431364493794295,-1.63208730837812,-2.08627490066542,-4.22728559299673,3.35102655049538,-1.75079403188167,0.717407760817842,-0.0705198942967553,2.54095722356949,-3.06681715762044,0.728927967725917,-1.8573530720222,1.58311765150695,5.53365108548367,2.36328153094325,-1.19492259578235,6.39807743870762,6.5607897878138,5.44924822157808,5.65228296314151
"cell_851",46.4799199566862,14.6435389614103,-3.69098458852289,1.10713447741056,1.86675208941841,2.12721642640312,-1.56867378511791,-1.40904307740401,-5.70570902218265,-0.963740476703357,1.3640510913991,-1.37877788274384,5.29473259319257,-2.95124646102833,1.61142077650709,1.21682674508003,1.2428006143621,3.58954110010577,1.03238626184666,-3.53136487883406,-0.795029466066333,-2.0020062077952,-6.10313726875497,-6.19571939412998,2.43557655833648,-1.34849840977596,-0.503362812957114,1.53886902343694,3.59248179971325,1.16477582014755
"cell_871",25.5911113166947,-3.15414431750505,12.028559572723,3.91047528809741,3.17499745120715,-0.853469737102408,-2.22217326657462,-0.970893358727762,1.88001652082168,4.89818129038315,0.770353107334735,0.17577847769182,-0.289631307118388,-2.25596192198514,-0.908580264164329,-0.165812032210265,-1.34975397759233,-1.72933105495715,-4.26261284168402,1.61621271931555,-0.171063798898757,0.318539365168401,-4.75485122984282,1.64461960550855,1.76341890247196,-0.578324008406152,-0.0315173803479542,-3.60597948455496,2.85674216861633,3.78138257416564
"cell_874",31.7808131384651,-1.21849900486083,11.9487534319519,4.2415968145786,4.99620386142576,-0.690509055310074,-2.19967466602502,-2.22419935014201,-0.114196455032253,-0.713552283440742,1.58539533180387,-4.93877413438582,1.23866399733452,-2.14753937458114,3.35693300396356,1.07413921686109,1.67891017721974,2.19865192874796,1.21330685356664,7.24437142310008,1.61829610422449,0.771799199164992,1.36245820525582,-1.09084712350991,-1.75570627184586,1.47051407365325,0.65854838737497,-0.530577123464792,-2.72208270679556,-2.18071843998123
"cell_889",29.411127885809,12.9520379935546,-2.02557477703661,1.51245079304219,-0.699946482841528,-3.9746603559463,-2.925108350117,1.81111814132966,-2.77673638573659,4.49903566696955,1.17004580322476,2.87425529508808,2.5268292398668,-0.516017156855847,-1.23329786544646,-4.09060217585513,-0.951166953090776,-2.30855856757386,-0.956107558302505,0.612075610179981,2.66890020486495,0.279329864226961,-1.1517442112374,-5.07970823379461,0.515625655445478,2.51914487112635,-0.853899779309464,-4.72574477156767,-0.972899078577316,-1.213097263866
"cell_891",30.372226109802,-3.83289410059411,14.6287752760006,7.00958521413554,3.62629656140882,-0.78540143053576,-2.69128580667102,-1.92335754632825,1.12536736974424,-0.229194770151264,1.07192317340608,-0.505879563259897,1.27694487331579,-3.08178401106157,2.25806156777389,1.52060243482146,-2.28999760623014,0.514204500327622,-1.51533135159592,-0.0319880708106773,-3.26733950536416,2.62176350771921,1.83251138615091,-0.957122145431313,0.196756702063729,-0.645394215978752,-3.47537250689544,-1.09846510142169,-1.21190097681967,1.28629180991845
"cell_898",36.5396136562882,-3.51837910489667,15.6835417524399,8.16648787918157,5.68598504111113,-1.17631416460339,-1.69592532873544,-1.36539036656011,-0.196300471911097,-0.371473652767922,0.990116788357414,0.770874290616177,-1.23907534085889,1.6334150860521,-0.0513753506474685,1.91237175950672,1.29827611483615,3.34773684540725,1.76336239001486,-1.50850073275448,-1.23389872071565,-0.834545838968045,8.22384799818484,0.285832192042632,-4.29420699537194,-0.777063134626927,1.83374436121805,-1.4156424739066,-2.50642955572304,-5.46927018934768
"cell_902",12.9407017835359,-0.556274059655577,6.07662425950113,3.48505312235408,1.40487861422694,-0.000166985455655692,-2.15162110837239,-0.376860564755279,1.46524427384006,-2.09269324011221,-2.74630757827243,1.04453442729671,-0.187908042978083,1.78735662942795,0.0784318452604516,-0.472507951483628,1.04540611489342,4.88681930789079,-0.410676612832351,0.809780956122343,-0.135775374329889,0.938921865698598,1.44231941497035,-3.62809409608706,-0.969002168525787,-0.0756364848015736,2.71184103754947,1.07105468422987,-0.202423216138807,-4.17898983523689
"cell_906",39.8692448137611,12.3146665864011,-7.64704938054227,5.63886303869343,-7.89984140635243,-1.07058354680258,-2.29776908374227,-1.12699048308122,-1.82947043688208,1.50524249074625,-1.20927994209011,-0.775964673892301,-2.08496437075435,3.25047713186448,5.03601724282917,-3.47008146143798,-0.0751589373062877,0.467254313282617,-2.12985284511293,-4.9939786605595,0.0617045632745771,6.23704158455038,3.27978953642805,-2.63445503187507,3.72668726024691,-3.32708479025306,3.21937436937544,-0.521273148728814,-1.56500558737213,-4.0286261383175
"cell_925",13.1417084962334,-4.83425016208728,-1.90096986705955,5.61989712340926,-4.39978597199478,0.754069356946205,-1.47870959293768,2.64260400388307,-0.492670055864886,-2.68264980313376,1.02547573789181,-0.482604697187435,-0.0978533547281114,-0.396562631468456,0.316890565046175,0.41313085389325,-1.56522115340467,0.792939507591469,-0.42606635884304,2.23295654241005,0.280250468571636,-1.25404323368049,-0.988441244086476,1.6613734514034,-0.0506950784496726,-0.725647910554596,-0.862210629134404,-0.589827036610976,0.74507233315089,-0.811689958641512
"cell_934",32.0429882063365,11.8617333318303,-1.72186155586916,2.30941239355566,-0.242718907283201,-7.52918116760248,0.679060555611274,-0.101277619520902,-0.0118941265430728,2.63446023783044,2.23061437312545,2.70912340631729,0.505220627785327,1.92863600812664,-0.450598132213186,0.998092409316859,-7.61653567508204,0.694083903036517,4.12937562072588,3.65956012128443,-0.0270547913169992,-0.123412362454317,-0.693509030290815,0.929749006466898,0.296732049040394,-0.474681535244487,-0.764826747251808,-1.23464761048233,-2.049256261221,-0.995170015996612
"cell_935",22.6590777221271,10.5365164728578,-4.75897002021391,1.83301317975435,-0.314337373541395,-3.74046512933155,-1.25961480921579,0.167293198215329,-2.72618860909091,2.7604950230569,1.51187154675841,3.41713455356881,2.16482073676981,-0.751814755820128,-2.69819955364611,-1.62918003365101,-2.81461093258945,0.734938951100361,2.92399417357805,1.90543679707202,-1.08495263323178,-0.253989835301113,-0.461637872943155,3.09768023034497,-0.06867294814614,2.32116897361409,2.19600015892572,0.0171490642677694,1.2121673016035,0.404415844185986
"cell_972",34.1028409485621,-1.58894513524241,17.6203958907916,7.60972114503002,6.52789306002508,1.05600186517116,-0.372552330077709,-6.09526585869767,-1.84167864216367,-0.422249202361562,1.97758918357235,-2.53268276502485,-0.373042089571673,-2.83541240401907,3.12986865251799,-0.248454187196067,1.50580035348414,4.33530966110939,-0.533065607341115,-2.12423540272081,-0.519490916641152,-3.12487860066551,0.608723951313768,0.840805627584694,-3.36542861689194,2.1854740204949,0.743310066182162,-1.4200015139501,-0.74636513175007,7.48323400916682
"cell_977",11.0539012496705,2.52056243107348,0.529382782903447,0.217308348925427,0.161083632785556,3.42842227311266,-2.29742365805331,0.897887600362352,-0.257012763110369,0.0293024638110805,0.293719843759597,0.480463840606253,0.864278775920097,1.04748740649386,0.112588036851835,1.88656354966233,0.146803727093229,-0.0823383830868649,0.148479553133563,-2.53101707267413,-1.03352394026783,-0.111571782407093,-0.190135259080366,2.54175542320054,0.547533328305185,1.17068167722417,3.22867441580712,1.10326968031109,1.7941875344201,1.28544869017249
"cell_1004",7.98004187575443,-3.25875598592065,-1.59789193448876,4.50906354862211,-5.75439339195039,0.643447405453887,-1.54453628290365,2.02222146879146,1.80170360375765,2.00253993531015,-1.50034779794143,-0.0884533606298299,1.29830818442586,-2.04149644609148,-0.364940481785975,1.51747362937002,-0.249499055485909,-0.807158493672625,-0.933848681073414,-0.320283779719337,1.34667474614927,-0.12176322943929,0.189211631335163,-1.36142664479398,-0.19017335341849,1.43712501647582,0.651162632264986,2.67965552108598,-0.862349676432244,-0.114160822099247
"cell_1017",30.1959387977175,11.260023682297,-1.88159018279093,2.87716375463124,0.601509522308291,-3.48511740830784,-3.01308011988745,-1.21942736000387,-3.04194031078861,1.56983932991995,-0.766353773618616,-1.35068697937665,2.03014243304937,-2.23594366376947,0.061725306069301,0.182881516017264,-3.47166936393434,2.58552464107656,-2.65891839421708,4.92603388908066,-0.18449369731169,-4.53488496575932,1.46787783891361,1.33138969634223,-0.660384476588713,-1.34172745098202,-0.377182134689518,-3.05965698809332,0.490516187660158,-0.317869760524848
"cell_1022",17.3594562103338,-5.59793120298178,-2.076902629839,6.67226376376099,0.875667563542365,-0.9332395560862,-4.78138101369134,3.05130629795084,-0.253528391994631,-1.71501771180901,-4.34125182994627,1.77772369459767,-1.28352660426864,-0.909269075439244,2.82121306483822,2.55751907731193,0.985515915250152,0.8241322974797,1.18795737928237,-0.336426057931521,1.55626324027492,-2.5979414796917,0.485907767763051,1.49653464475206,-0.159901556262657,1.22340780407772,-0.292160683704333,-1.94850043569641,2.04879237421633,-0.565766653285336
"cell_1023",24.1843730990081,-2.66224303684128,9.28965028861378,5.81786787512451,2.22352278860025,-0.254651589255125,-6.29006135341185,0.975629609407442,4.46524702112992,1.88970600456143,0.0363014324220128,-0.0340988608228172,3.69354494765007,2.28254982812087,-3.03445442087644,0.1411780699361,-0.836587988943853,-5.08679859651164,-0.739576636921981,-1.4003216405329,0.427028148126921,0.399785118527551,-2.87457980725578,-1.62849227684217,-5.95367787749614,-1.57343621199225,-0.917914710948025,0.801844963758484,-3.69435935095244,-3.99507243865777
"cell_1024",43.1653118985476,10.3226043744524,-3.72166432817623,-2.89163470368605,-1.34081600586698,23.1594670345598,-1.60507040518501,-0.953248166851385,-5.66076355861975,-1.25385312860889,-1.8599199962271,-4.41190726366661,3.34276927159619,-4.74888171796776,2.53369758025997,1.6207835219928,-1.65003114299211,-4.99223103361235,3.27777519592348,0.859431620763048,1.21494216997782,-0.633906717142804,-4.07592138917133,-2.15352560015132,-1.1256278670553,1.2185429802701,-13.1619504120043,2.9283999922677,-0.113308620660103,-1.58948577119182
"cell_1026",21.8372711334136,8.30927647861995,-2.11885097794465,5.25653963497127,-1.08000822013625,-4.77985753051816,-3.86484929226467,1.26364469295325,0.67926938566043,2.56721130159371,-1.40527340455836,1.17135703549842,2.83959028823348,1.06756732271318,-4.25071173669775,1.51076237393901,-1.88010479150104,0.221460061873509,1.1627438876572,-3.50078712548055,-0.841397075813187,1.64097661180772,5.03897217688182,4.1693988429806,0.62980367950653,-1.77891110124658,0.275441379397951,-0.703072369118588,-0.585318726885598,-4.70504245524596
"cell_1034",27.3256080544246,-5.87595835079206,3.32461444219584,-1.73751691318119,-1.55311297164281,-2.6538044824185,-5.03884003016477,4.95806182303227,-2.76788437449343,-1.81579487267791,-8.21397032504224,-1.83241245596427,3.95399105176955,0.976960924367803,-1.87655122529948,2.34043785204263,-0.857299877068647,-1.84782821777334,2.42920989618814,-4.46395663421793,-0.814243055102254,-3.57347983804183,0.87480083183317,-1.55766832478441,0.0379603803044585,3.08124827355774,3.06250913258034,-5.01448702284921,1.42738827193117,-1.86924846956153
"cell_1065",43.8225121340822,13.9097443316746,-2.7037839904442,-2.0240514385663,1.95070371223018,22.5292238233692,-5.78206926321389,2.94705185284571,-0.0210101134099117,-2.72051265939703,4.23077775566752,0.91463612904085,0.216173699823865,0.403024405872236,5.18907489982347,-1.61946898397972,-4.21575536671593,2.18369405245854,9.2627685980954,-3.00277098244038,0.522567663592841,2.10114493570407,0.791102082507612,0.54046726501167,-1.76424632013593,-3.64568397324427,-1.95850706940963,1.41606156051625,-1.91511988632057,-3.53980206159056
"cell_1076",51.3584210608954,7.91040231149857,10.6151518001935,4.87426845563262,4.03573384922386,3.21478633230088,1.45751772322896,-11.4230301127629,-5.3351567154144,1.08446666171155,-0.590869748338509,-0.907726247226621,1.43564663602404,-4.23358948121997,-0.0747752764833924,-3.20710043334391,1.79938656267457,-3.50495370717497,-1.54945732382148,-2.15768933447578,-0.898729555292557,2.0746217825888,-0.982306345250988,6.15773611840051,-3.7381496148938,2.15299141421868,0.276395723102762,-4.49882230193168,-2.44344896241297,0.51666852001829
"cell_1078",38.0009975031574,16.6675986512345,-4.13130338094384,4.19940649469257,0.8059261464989,-3.86382594100557,-2.64286340980997,0.113426985362592,-0.746829622307706,-0.292657771368213,2.09868043670082,4.36793905889446,0.603085002668672,1.00926073486081,2.92363677262674,-6.78486166102677,1.98901970214056,-1.14797304217492,5.10514626608847,-2.29583433408402,-0.332270328175064,-0.325235520080348,-5.58514590166231,-2.11934364972729,1.7593172989303,-0.0785361275209333,0.6158776247583,4.47033860675168,0.469934664857438,2.0085617174873
"cell_1090",31.93644289266,14.0697915140375,-3.0259139841081,2.29868286319851,-1.4182715665207,-5.07070375067708,-1.78397158378528,1.69226016991443,-1.31159877719074,1.13648507198622,-0.444113312066473,1.56224885739707,-0.921892218687447,-1.56136044414587,0.19624252357383,-2.97515116358678,0.914718408721157,3.81190766707703,1.02250036755337,1.68533524869037,-2.93219641510666,-1.5699981245031,-1.37383311640445,-0.156368287011781,-3.82466518707225,-4.25931751747689,1.00658967588712,-3.97681253790711,-5.45520339872552,-1.28093189288928
"cell_1095",19.1961546477663,-6.98394729654796,-2.21837761999529,6.34037091497371,1.36019589755206,-0.253821625968717,-3.72250408431054,3.49971920950986,0.342725537877944,-5.2678166639944,-1.90196705752837,4.69917769065646,0.476355047741462,-2.14733273015119,0.115086568767302,3.63868033145973,0.313351443313973,-3.03615859392752,-4.84113701643297,-3.00964231783449,-0.148687199919136,-1.98998559798141,3.61761587139846,0.380306778923536,1.71128687018763,4.54171088967823,-3.34667308655027,-0.382274764746343,0.0783121878981535,1.43644374783826
"cell_1099",41.6045312907017,16.4149951287808,-5.78672448925915,1.73458072419383,-1.26713600644965,-0.92286598046984,-1.44157888941387,-1.58726678077319,-0.908870749812822,1.6017188569237,-0.874176515926948,-2.04752399981049,-2.06690144107358,-3.55522590799603,3.36695583952745,-0.616079407246715,-1.1764249819625,-1.41336482172795,-2.58616173539367,0.570422001840268,4.64161391666884,-1.91448621771243,1.47865671950025,5.83619365259029,0.642778168568658,-1.78414071226806,-2.53364908977828,0.496952388961463,5.05961712487807,-6.25820057780979
"cell_1116",57.634288703564,26.4253201117853,-8.95539885694776,0.344895901950853,-1.1612871238486,-1.4431788810878,2.68091089981709,-8.2362452511754,-9.15280077233612,-2.20226887869926,2.50465195035347,-1.15086929785349,-0.130897627055694,-1.93462481828622,5.64310538668554,-5.98369370980976,9.69843416408365,-2.61243093739066,-2.09086661795003,0.402033409760164,3.03043710663338,6.20339157517242,-2.17578262953473,0.00416201472822194,0.382542672495129,-1.62960009525271,2.95391704227426,-0.300577771752147,-0.239634355367556,0.61514327277778
"cell_1129",42.3783764922577,-3.88669295814302,19.4760337717124,6.20637786318022,3.5163335109439,0.88821838211557,-0.244228909365584,-4.44128875137284,-0.190266584241066,-0.277664678515898,0.847666833182876,-5.17506962133338,-2.33108821442633,-1.02222590121965,0.483544938873862,3.22827540887102,-0.924373013263534,-2.5128598684005,-1.78704228689526,-2.67930192049137,-5.23801987180831,0.31610044246822,2.8363934282668,0.632989277188278,-7.908232451504,3.64913177714574,3.50103587944955,-3.81874418811006,-2.54507235448749,-2.77575898234164
"cell_1130",22.7310714004803,-2.8038138880394,8.66013451605428,2.56957478231824,1.50684912907512,-0.113905838473751,-0.376080186213398,3.40445866306256,-3.33938765377984,-1.65210146608068,-3.50785481835943,-2.02549739573042,-1.46986185518906,3.54519495988372,-3.03866409563399,0.892870480125313,-0.604813951726709,-0.149714105964922,-2.47033858594551,-0.674269453656699,1.13245016903974,-3.37745617931302,0.136595797829211,-1.73588733934025,2.755084541698,-0.13891840394524,-1.33457848216387,-5.57758695997949,1.94407847949493,-1.64678709456944
"cell_1131",10.3705838481679,-3.30923902457737,0.168514825332925,6.28633956814141,-6.97047822760013,0.860946343805812,-1.71596986542791,1.12913728520992,-0.77778085399357,-0.654689371734732,0.086412517579095,1.92990713596353,1.32445248580311,-0.726000695390364,2.96404750253518,0.163563245507128,-2.91403450210771,-0.532195134905286,0.0486887393437661,1.0019882818452,-2.79280338952903,-2.03877713706012,-1.19487427086445,-1.84996506073481,1.22017059105048,-1.6955784410825,-0.426734838409059,-0.990930945259789,-0.126223333616828,0.217226301075978
"cell_1158",40.0317509697541,16.1084701759747,-4.78345880871631,3.04615706918131,1.13599784037853,-2.88492134536495,-3.67740538464124,3.34999335343679,0.250468010610198,5.91474466275491,2.61764932884924,-0.574982692186725,-2.39754103456549,-3.06484043944063,-1.81790100297797,1.13882296259418,2.73870995620586,0.672206963620437,-1.81874902711872,-0.322416804615245,1.6162704028916,-0.4005580807249,-3.16207013906803,2.29192191465236,-0.014382359082506,-0.52596268927013,-1.6120213920051,-2.21481507220704,-4.07018154795238,2.93611690949012
"cell_1164",23.267523054646,-0.761341206578905,10.6570127836964,5.52658364969574,2.09369711696972,-0.828634397251985,-1.91108681140277,-2.26581930624269,3.06536061974648,1.96984524071502,3.84706884581783,2.43817863710686,3.11853793806099,3.36204489356503,-2.12741723721926,-3.4254212840879,4.62637902948172,-0.533971096570678,0.657862593724756,-4.69465225439055,-0.0925187852867558,-1.77482659969554,-0.0249248744803808,-1.87579208118064,2.73349805892099,1.24773765788866,0.367220961667771,0.523014821484905,3.80438426368928,3.19516508987246
"cell_1174",8.17300410171984,-2.21536816089187,-0.271503560281612,4.0589455444042,-3.34279095647634,0.205890369642898,-1.63174125606243,2.23839162921057,-0.0490917707505047,0.147401502674135,0.539586154184559,0.0894424673245381,-0.425357002560752,0.708361374805003,0.458304388474581,2.19627509003787,-0.714487213763661,-0.643367239787728,-2.36630402314113,0.61287434283116,-1.44441383405695,2.99418739146682,-0.113136459976342,0.61554247588602,0.956328447645663,1.9925201049887,0.183183783464037,2.49920143112392,2.23366769000118,1.76446180916446
"cell_1233",36.8525077094135,13.0033023371537,-3.53334521010852,0.0271005132449982,0.810300739106265,13.8568490182511,-6.06973779145282,2.16344077967576,-5.2059432470353,0.555652119680273,5.2807641583478,1.60424777521592,-1.09630190015877,4.9540777210709,-0.820979174968997,4.53697483915616,3.47748920511554,-2.18501637089379,1.64864470855774,3.541159281955,-3.98575761769345,0.844890191646937,-0.0705492193171899,0.585894635378445,3.5008933141651,-3.79121167319584,-4.41835071640816,-3.02225194066784,-4.75694615064935,0.0662319628679063
"cell_1242",30.5514752934503,-1.88766732589422,13.0345328753976,7.08404073362839,3.12116527805461,1.95148533719656,-3.2174393569219,-4.47891267133721,-1.60645538463401,-0.936227047968506,1.98933913991686,3.0627141077733,6.17343183615334,5.0466849227425,-0.536514059751865,-0.0878757767272144,-0.384672025244061,-2.27321680986908,4.67002443477247,-0.706024740631609,-3.20020921687641,3.42928866050243,3.90773142046821,-2.00435730127372,-0.763260260961468,-2.74050157322556,-1.03787090497067,2.03555784078897,1.34851802841647,-0.19909314133881
"cell_1244",23.0982004412903,-9.65872981517478,-3.74889946316465,6.65358914539085,3.00730514968697,-0.229798264686192,-7.88195396302086,5.12404245116093,-0.180696509261533,-4.07521729489736,-7.12419675084576,6.31676950407556,-1.87308066194102,-1.45243322488664,2.76959165484,1.04053938363917,0.843332099322895,-3.08181813197506,-0.265331881885875,3.43387697486755,3.2296628203072,-0.669831845268397,0.361718097928502,2.64541799682809,-3.03717463821628,-2.01852033480966,0.111376711487407,-2.86920750653355,1.70742567554547,-0.0589116367128482
"cell_1245",32.893688848073,-2.70394549215343,16.8907495557285,8.24127174762852,3.79223944641021,-1.87600438706481,-0.264444172550229,-1.77790368595592,-0.717096434814423,-2.09128964270764,-2.14983020840775,-3.11767830546388,-5.53455193626243,0.139808723275706,2.27849467687165,2.23550993961745,3.01283372129174,3.14108065227484,1.22344858838471,4.30862715592023,-1.02774995174472,-1.05089952183834,0.511795104561878,-1.1375541352118,1.42002937223574,0.770859877684684,-1.80968810629258,-3.50024497865837,-1.11148118426867,-4.22668014908724
"cell_1261",47.8136187250604,11.7449871546412,2.60334414646947,4.14804478282498,1.7171848717295,-1.29557889226788,-2.64870848607332,1.01051040413757,-4.46566435772084,3.1741375466416,1.71400998896538,4.74174540800871,-2.61716740926649,-1.70954162366214,5.59276890902858,-2.23208645200192,1.08254574830655,0.520399003262628,-1.52521739719936,-3.99514722741721,2.22800857628337,-3.37790474961903,1.3603219549522,1.68860605906295,-2.39829420746283,-3.45491967006219,2.5139157546705,-3.27066172053421,-1.4217597804049,2.72543203843199
"cell_1264",46.230301393377,6.08576116739335,11.4041040156146,4.98590086358767,3.50751467152029,-0.148968936913074,-2.49132636666731,-10.1767133815935,-1.16135514766094,-6.5269877637838,-0.236092822935214,2.58624039546169,-2.46490126715223,-0.687225536148747,5.61873562841212,3.20235727660318,2.94162158742643,-1.97845401827139,6.35442446053307,-3.82781013951405,0.0770898412144239,1.70420755286802,0.962027440130282,-2.92145554001046,0.857447838671286,2.03179955821281,1.16251621311977,1.43212969700203,-1.08241232462916,-4.14001311964817
"cell_1274",36.6904816044901,-1.83529979556382,15.188832434841,6.43259420338592,3.47969597103963,0.993164083739232,-2.94134199052057,-2.62842398588925,1.45885016982705,0.30160353985526,-0.979390089784459,3.40072472583232,1.17284963128132,-0.0826680947072544,-0.29775633574193,-3.41885158176808,-1.52175575300694,2.17270072619219,-5.93652741800333,1.12090510539228,0.195351525866483,0.828101553665309,2.4441044338647,0.219219803837384,1.96021236724833,1.48235175095032,-0.559083887284866,-3.52108922417558,0.135841564492003,1.41650345987599
"cell_1275",40.1186960193727,17.3662448047092,-3.72660373684902,3.30537067368048,-0.741056075605586,-7.52067325145932,-0.509562276808443,0.279003641727077,-4.31132905196389,-2.24446214457993,1.65906043160576,-1.17470117046087,1.22985264866291,-2.78697724816936,-2.05943721951775,-4.40652795697629,-0.853939954601632,-4.15174022982884,0.906809437652667,-0.287895266473465,3.41160108229192,-1.73022510463354,-1.51976470215149,4.99379640070237,1.30405792745361,-2.69685815670318,-0.337810313995598,-0.318111789317151,3.38926856215075,-0.136540651013811
"cell_1297",47.8213304866614,20.6112026659887,-5.71999089245376,-0.835667875839809,-1.23467325130037,-1.23942558194567,0.487253373214666,-4.62588763826979,-4.56419446722735,5.41989360712961,1.37812515961707,1.67653251302014,-0.57178802220301,-1.62872948241766,-1.61104745260409,-7.62706829764795,1.7383581665743,-4.11662426691493,-0.887683495697029,-0.583674889976126,0.660027763031938,2.09254655749454,1.88742048107591,4.25334787949007,1.0349502233754,-0.379634978653282,-0.814137480243631,0.727499048575364,-2.35853954291206,-3.74307548188689
"cell_1315",9.20813381190012,-2.3778405080341,0.832412917781566,3.72715901875904,-1.80910873115868,-0.472888774120714,-2.14632203571107,2.84578613196295,0.736236972107464,-0.0865850239283315,-0.197641817333873,0.998037630196995,0.379486027228571,-1.10184468069535,0.142415511723833,1.85986145160378,0.235227507931947,0.545102872460555,-2.61848906090489,-1.59861804442259,2.45716586797987,2.00003491488445,2.11207527258991,-0.0022912670052204,0.973673705383498,-0.530101526515365,-2.21965164064431,-0.57523253097184,-0.693959757218574,0.121329811522748
"cell_1349",39.2137087413798,12.3563284420479,-1.85407154484366,2.35070501107024,0.236919262724821,-7.37288752687501,1.37517549584298,-1.51340460522039,-2.66199968699592,-5.57510046151304,5.69362085475034,-2.44991217529296,-1.05418986038803,-3.21058652729288,3.26208759317701,4.40955971296005,2.78823864174228,0.743887530591289,1.59899385884286,2.47195890273281,-1.8631423546258,2.12348658057697,-2.54914214638342,-2.70882211021977,0.217986756634158,6.27391853572358,-0.745000505250897,5.35048584324494,3.61225177075097,9.70824701833663
"cell_1370",15.2587985026126,-5.21924690487664,0.774740931396974,5.68771763584822,-6.66665275279501,0.328722950164129,-0.699474904175491,3.31293566799828,-0.162109275371937,-0.0617952701668065,1.34481225220361,1.11985334069593,2.78782976132509,-1.73640826639186,2.11677130452596,0.157801886960975,-1.17636821615037,-0.164832247793958,0.73507935138882,1.65977544327742,-1.1583343361411,-0.512602492539145,-2.88912307819038,-2.27056369403793,-1.98896220820401,1.17703459382545,-1.17161776364795,1.44199865026236,-0.204349708270011,1.35153111807538
"cell_1389",29.9892691184603,-4.88489664032755,12.4197702902217,5.29298030051114,3.10958134854049,-0.145350100876417,0.260530927960842,1.00513954473173,-5.62464046216969,-3.32275724769832,2.26749511720659,0.119859628782612,-5.23975188430254,-1.23891803378484,-1.32748218030464,2.19470176575191,0.317175858906447,0.427435361045199,-0.384615843118522,-3.07487604897138,1.17003115783745,4.4449287672102,-3.24264457354812,-1.7897216410708,0.00227269053207492,0.939150601971688,-3.22296294664374,1.53291584212135,5.25934500262264,-0.288535522315103
"cell_1402",44.6771467813807,20.9007552027397,-7.86480517173664,0.808580453226822,-1.92541154805675,-6.28508608576563,0.840340124308531,-3.90007972893826,-5.59938873694471,-4.18960794090776,1.58076106223831,0.862496503629193,1.82989330716362,1.50580178333367,1.67084824409521,-3.34793707607281,-1.18548551428119,5.24670206843128,-0.248694189236654,4.61814632220171,-5.93261093629119,-2.18211762757643,2.02805429868139,0.709188720837794,0.906928166691754,-0.205297265673351,6.27418846295839,2.83985736900578,2.09333586867369,-0.699880074433401
"cell_1406",21.0104974693345,4.71816448754113,3.08265375395766,4.18095585560124,0.726120700762278,-1.41795292595359,-4.16044238997713,0.365911625274512,0.243148310269679,0.879386848036508,3.95256186632918,2.7321387133254,-1.87742980933005,2.8334535510979,-0.904223346837285,-2.35770785729232,2.39279378443991,1.81719283803809,-1.72656430939105,-2.57951121717123,-2.49958699333114,2.3788733204525,1.453271818026,0.213985092245102,-1.74597342885906,1.42851769076412,-0.0951173143873426,0.767587620283698,-0.203470941308519,0.364900979491564
"cell_1424",31.4661218517068,10.0061895818916,-1.30608261507208,4.24678069785375,-0.195998420149258,-1.28946861768374,-3.97023829431713,2.52546712806114,1.48797805882083,-1.2364122587329,6.93440715591568,3.71496742776804,-1.8839824106518,3.87127742358967,3.79710303124063,-0.137868118698912,-2.0412742443537,1.95948905945867,5.45728694435267,-0.539769259975326,2.46421131048475,1.80306877115756,-3.16896178514482,-0.130484445824418,1.49898228460248,1.77721884454102,-0.269225611201117,-3.51757434863256,-4.59430925651114,-2.53668672962289
"cell_1427",18.2909350978425,-8.27043139763979,-4.24332819316244,5.51174450835869,1.03727512568119,-0.44754392290222,-3.47209573889533,1.8864787144607,0.418596746711024,0.263988058567297,-2.41442091736492,3.84931478967891,-0.324146294657956,-0.71121909899412,0.968732525254189,2.38083706110166,0.685955071485602,-0.501003164922228,-0.851986012194394,-0.22493217486372,0.913869309019449,-1.38698158231592,-2.28228205142961,-3.55848891639901,-0.156173218402408,-0.649953185344618,1.97675685624254,-0.328572894142976,-1.81644634482936,2.16846878394868
"cell_1451",45.174479571401,18.12367825865,-7.7154618472004,-2.40348238183549,-1.35951142162304,-5.17710881802157,1.92724741088584,-0.952334854817943,-1.50750190466772,0.939131168942614,0.271159131403849,0.219394733741431,-0.46922753453546,-1.22109501426214,1.49295932193368,-3.49561272450717,-2.26021609975094,5.61693560097673,-1.21742890810942,-3.44798909518154,4.78035759881752,2.9029711456748,-2.44454794929526,2.82788206000226,-2.86602291528542,3.39326710797995,0.405900696674269,-2.79014935173434,-0.773869711078341,-0.401094788326113
"cell_1459",44.9175586309731,20.6398786681757,-6.19660116720387,2.15413014897184,-0.694841903348389,-4.92733959367625,-0.350484244772744,-1.73090324644757,-2.46401250366553,1.99731536877632,3.38426235609782,1.40566481913046,-3.72016255387956,-3.57206898706361,1.51987461172321,-2.2296141980967,-1.45933816570144,2.90247425964323,0.51061088350524,-2.39316098596652,-3.41025679547833,-2.45765477138202,0.841058062059061,1.3463479003698,-2.91224897105316,3.23270056267097,0.995130642446782,-3.32701895180072,-5.556534506815,-2.237976291191
"cell_1488",27.7530977997616,-2.62612854764131,9.80996420193428,5.21693581612169,1.62112475465901,-1.08008827396753,-4.34524740154757,1.02194473275724,0.773191057240066,2.75781451662589,2.74181685490257,2.32773374452226,1.15581436007619,-1.95452616569219,2.17630361353489,-2.70735549918072,0.919251271477896,0.529067818939209,1.74171693548426,-2.04725374676393,-4.53503972895943,0.613442433808141,-1.43626689250965,0.49003316502677,-3.24263438198836,1.31760841131532,2.49289221624748,-1.63835925275209,0.482397490363829,0.838635730725194
"cell_1495",25.504072402483,2.55930862842338,-0.780034511066327,2.8192866574545,0.467125036244132,-4.36562826894304,-1.26150509144257,2.92627905211414,0.0559512973715419,-1.70828183136189,0.0829429892076335,1.3581178626844,-2.07333710474018,0.325533257065641,3.81823157667655,-1.56298989394042,0.0106163181235809,-0.79293999505593,-3.28349791918252,-0.797348216004836,3.06977665598713,0.367047737676906,1.75296857968013,2.97088730699917,0.681333905226365,0.118313554475196,3.32110219127547,-0.728444958122968,-1.43004563323699,-2.91842438791257
"cell_1513",54.1212582198126,13.1878492632668,8.36345905582894,-1.02472967658469,6.17555134049954,17.4799012310679,0.371446271742236,-5.5628185309124,-2.24311983151862,-3.47250136163797,-3.49881560263937,-1.33107994264165,0.859938107703096,3.53788677797905,-3.09786495563773,-8.38981694726737,-1.30316418873583,3.3542140019938,5.51560003400311,-4.96014933648389,0.204526457671528,3.35764538690289,5.80867390482083,3.21053772347185,0.300423208803814,2.4235591808289,3.46733676459588,0.750993544593056,0.74932694691346,-0.042507684941309
"cell_1567",41.0551706011478,-5.17368061565808,17.9594831391116,5.36118628199692,4.89940906190333,-0.715166388444767,1.32980541777736,-8.03197558702747,-0.474200911510011,-2.98212044400127,-0.0199990414479388,-5.43796284462681,-5.88250370141292,-7.50919636429515,4.19659053285709,2.56160633983676,-0.102222332111627,1.8466368488123,-4.33116703598841,5.61321285438671,-2.99309040569541,1.06449676770774,-3.92952854501501,2.18254955016043,-3.47705546300572,2.48060322124622,2.24997331958286,-1.96524798139158,-4.93684261904359,0.193951173035331
"cell_1568",37.3439524280828,-3.01263351364859,18.3163921682674,8.36316561596861,3.86286958432296,-0.019825850197938,-1.52236737080383,-5.23820014661582,2.07344876461129,0.691394510252355,0.0865284053033895,-1.16914919902328,-2.22208847338564,0.948733494505084,-0.999097824681925,2.51798664249476,3.09511729296844,-0.541278683037254,6.77702224890943,1.02852350536725,0.521898113987901,-1.05421156458502,-0.834427122465436,-5.13695429715377,2.74129001334346,1.86134334681145,1.30834654420782,-2.05465632309974,-5.56274388394889,3.10871388326029
"cell_1577",16.8869265991562,-0.821660033485156,6.77231979902605,4.79396037931537,1.90671046263036,-1.12714163273334,-3.61931986169447,0.511003716626439,2.04748368919135,-0.589678667760354,0.791362075829468,1.21297796628424,2.47632415991514,1.10082864305763,-0.318526874284386,2.25965020065539,-0.860258094219893,-0.68073380522862,-0.245533043664116,2.17592876245947,0.379272874171514,-2.76434650383036,0.149630502831785,2.50946141052758,2.69225994770817,-0.917646585804999,-0.107940487762449,0.864986111401358,2.01572098100026,-1.16047514119488
"cell_1579",45.9814695448351,14.2733214558324,0.770703920061132,-0.711957640395939,3.67113449193704,18.5488147863523,-3.98085689811836,-2.49999362810602,-0.117863128144017,-0.0873485755830796,-4.30948677447149,4.05187769986686,-2.29934994404944,-2.58763477941225,1.36341129564778,0.331600230298244,-0.956464825000022,-1.48823616004429,2.45600740654581,4.42839380484186,0.732683336865391,0.525847938168253,-1.04114370974547,-1.30878689172953,0.0626226181359319,-1.48752709191263,3.89301973592105,5.06325725688039,-1.37178432893708,-1.85970793787929
"cell_1584",30.1301974954291,12.5449672589648,-0.321859322059961,2.99650920067389,0.537227633642222,-9.34756829735229,-1.05256500342977,-0.218810121309999,3.55429662021943,0.0392544768542731,-3.97489325267772,3.43407339131575,-2.00550399850674,5.04267918447478,-2.78799450582271,5.54419292720677,-2.9753937363387,-1.07973503061605,3.59678776358539,0.960773581606173,0.989780217060439,0.673227093220704,4.74165065340325,-2.06597134277263,-0.178540778876276,0.266281757344747,-0.694695173316717,-0.959037402714433,3.51154293187535,1.03886448202656
"cell_1593",23.3267380871165,4.89325119317992,-0.612674794922646,2.31390093856207,-0.267779201474084,-3.7905248577714,-2.25993415064526,4.41582554282801,-0.521833558149638,-1.73726715036004,0.696259780910258,0.876366861521963,-1.08494637503311,3.75699067350634,-1.10352470402623,-0.159179261060653,-2.35803992201558,-1.16749962514227,-1.5991571899401,-0.731425630773701,3.90843384929501,-1.00676364307726,2.5146119392522,1.16096119081946,1.68701463650799,1.68247912566652,1.47192722102255,-0.628205718794104,-1.59674443893451,0.859503039260131
"cell_1600",10.0233922367059,4.29117738482206,-1.41952482101544,-1.85625372541016,0.633806774271499,5.35480086089789,0.302225126523931,-2.4006516535844,-1.69315606754763,0.04977260433415,-1.96220013855467,1.58048408316907,1.53762004408392,0.408678426789602,0.280249982296228,1.95412901121405,-0.219744988104903,-0.140693621312437,0.038709219152147,-0.651845597991162,-0.355841383049048,-1.32085317486262,1.87498425911583,0.984102891072574,0.986687176777657,0.177505433042534,1.00194282425511,-1.403829835078,-1.65956009793452,1.44999166831489
"cell_1623",33.0011971368386,-11.0784847502708,-0.82194679077382,8.13692424389235,-0.704097829879071,0.273492819643541,-6.80470862221117,4.35675195550791,-0.378706161640439,2.09440884405743,-1.84186921415321,1.17498229755206,-1.42415378285475,0.776257659093961,5.04840665795365,3.18377026562343,-0.0987207009320193,-4.89203169792107,5.31165010175459,0.931552862337798,3.63725418927832,4.47479662963176,-1.24424519143565,-1.33815847144361,-0.477345519450452,-1.77502502665212,-1.61515721704647,2.45888647315592,-5.06241023123554,0.454466506337619
"cell_1645",19.552029737426,-1.95678808076946,4.96221018144976,1.4942659834449,0.242203716983939,0.830237549295004,-3.95768253451698,4.37178596662875,-1.7819792195262,-2.25488598137897,0.734885048937354,-0.750397376922641,1.35172339197484,1.85307104422865,-2.79563265477794,-1.97194950919163,-2.06614930827318,-2.33996335232368,-6.47969232586592,0.0780792623933233,3.54596422044912,-1.77514015989135,-0.0172176275279464,0.109660408875914,0.290744104534406,1.4760181327983,-2.91110035455531,1.18407529688237,4.06855704503402,-0.713663600798849
"cell_1650",41.5058458490966,13.7963411408993,-2.24509361209449,-2.83593927795211,1.37215069686616,18.5774469460921,-3.37217669713949,3.29448032158162,-3.54603712065889,4.15204431876553,-4.33192254661814,1.33713666866414,0.652481809348629,0.315023091932566,-0.311831888725639,0.701650720555651,-6.39000397923306,2.09646062616353,0.243980142191279,1.12442897771015,2.30927860037142,-8.27190751453515,3.79035302262729,-1.67751518738241,1.32550980225959,-3.19768092771031,2.13074289344097,-3.71127551079152,-1.32027066903931,-5.770823209211
"cell_1656",12.4962948782545,1.98014617557674,3.0436733602267,3.05219600059584,0.793105772700811,-1.78729548319682,-2.54363111440825,3.63081981792751,0.147106602423442,2.98831820775795,2.77520039911468,0.866001262126482,0.503516502477351,-1.83185456597553,-0.0505775774866145,0.500258827560807,-1.14681248827117,0.228640488066317,0.749785474312894,-0.368055729190089,-0.711578113501297,-1.34811677050693,-0.46286021426747,-1.05458022588854,-0.240806219447385,1.66289267256082,1.00364970327796,1.3377656834732,1.88718338882077,0.967011503031023
"cell_1659",41.548678345057,22.2602835768725,-6.22441241470281,2.38390317419187,-0.783737851949906,-7.90449324416418,2.06735459213653,-4.11365141753565,-4.04303952425016,-2.26133123743265,1.61326106780352,-1.1014335852188,0.351764822063421,-3.16557551142682,0.505399709276382,-3.78842571935808,-8.63493734776518,1.10766104316203,-4.23369568231385,1.04022122928864,2.85378143033556,-3.11528438680343,0.505286481741834,-1.31532278774563,-2.20833484602976,2.06122311420883,-2.48214506627422,-1.4160910552869,1.59404301445308,2.59405403344135
"cell_1663",41.9202181865301,11.534129408401,-3.07151053989823,1.35519325737073,-1.19954067432105,-1.81472767565993,0.53652826194227,2.69502839592105,-2.30582081075646,1.74997522155046,5.01969036256806,-2.66740299361914,-1.4750439349053,-2.79691513141184,6.07641721522005,-1.95587161998223,-4.15671077606392,4.2902452390109,-3.02406131368482,-1.99716112397085,-2.68854746657862,3.37082443242364,-2.36067237358938,-1.03186242249583,6.2256237107527,6.3071963699886,-1.28828540035251,-2.33893562154184,-0.2829931324962,1.7182534471837
"cell_1670",35.0653916866513,12.789034255051,-2.97809245777697,2.5798139402795,0.0958034581048438,-4.28097559199382,-2.0441923951984,0.17963710406743,-0.826274692240592,0.442985949702866,2.04174245856896,0.283922548582322,-5.43348783774661,-2.88704805750026,3.36508780308531,-0.42756092855397,-2.21600959271286,1.38638295527708,-0.232028074872947,1.79829083452027,-1.66157799923185,-4.43496351045189,1.47439870126034,2.66295712173975,3.04047634398195,-3.87779801911541,1.50281978518012,-0.007782388437257,2.46959943707095,0.558565105795124
"cell_1677",13.9881356479829,-6.57881613801838,-3.18228514748045,4.80452955433144,-0.133849786995156,-0.412109509985048,-5.80234356094348,3.81894069978644,-1.78917011658529,-0.561320852020058,-2.71141430753797,4.11966808856672,-0.937010151673341,-1.33229762999545,3.24315270552261,0.77528378020568,-1.11484878425141,-0.0128104943682191,-0.719291342457199,-1.07442883204732,0.891426203478613,3.87291378119644,1.57634558049983,-0.0666724859077052,-1.59003832558459,-1.43284579370965,0.219812301551812,0.921860780730252,-1.80898143114845,0.931200817036512
"cell_1681",46.3274315462492,18.1451314005712,-4.38179265606587,-4.91575913502476,2.37430909515631,21.993925943899,-2.91403966126484,-0.229221786206335,-3.39000007269943,-1.55657231895856,2.61717416416692,-0.0829525724098883,-1.79442645605256,1.48360649011587,3.13205051901506,7.2140469244452,0.712152373718076,-1.35312837557552,-1.60865045339772,0.864049010678531,1.0668213948799,-3.38429391355858,-0.556872749725292,-2.51092918120317,2.08086472220178,-6.2984659089538,5.20897099341531,-3.91520444867513,3.51840246373901,-1.60226459890451
"cell_1693",36.2856589538936,-2.26020176852862,17.8417227574782,7.24754220279519,5.81126170369969,0.867359770995338,3.60167981100925,-9.60122106568639,-0.887919614198715,-2.49208511394516,-0.00549308966349109,-1.97876125196608,-1.6624899585082,0.495304597647542,2.95596229644679,-0.232761021819647,2.82724847748565,3.04513270121905,0.447425768478095,-5.12468073521405,-0.160478901497655,0.622058446487019,0.860121606846017,-4.22310985493027,-0.125711762977678,5.28546822531887,4.8361643734296,-3.09786777973796,0.11927267619658,1.0891035741575
"cell_1697",12.8392490108298,-5.32317273622144,-3.02932563625855,5.42225489442301,-0.17389219291816,0.162882217758593,-2.91549689060546,1.10229067079102,1.02044650321494,0.891584657793205,-3.00367176914532,0.0951943633490782,-0.728091517353028,-1.61901748019641,0.438350235826429,3.16112656804648,1.99323612146093,-1.03429425718952,0.0940761124841206,0.316535213605932,0.722903632329259,1.29921765980098,3.31706391026085,0.832821353564651,2.29024642322345,0.0311560209107439,-1.83143632623609,0.203502279329334,-0.179947390388311,-1.91547167725729
"cell_1726",42.1054812798095,16.6578083664826,-3.74066157611993,-5.74870368971619,2.67708280777599,22.9031337479983,-3.81808970298904,1.02168963461378,-5.2541024674582,-0.372223441418145,2.73837958167969,-2.22822051267211,1.16063451444254,0.22888613019401,-2.08534405827806,0.868037058748863,1.64741971085405,3.45007022548699,-4.47578639214856,1.99020299221696,-1.32420130893932,-6.33095823441002,-1.60243823128234,0.869951299081277,0.0316484136918439,-2.17130596238561,-2.95405923615989,-5.36390617173298,-0.761526642087903,2.25680300747869
"cell_1730",27.3607860374779,8.00604345927579,-1.34922367314755,3.41861560973294,0.12420972405999,-2.78309494528384,-4.04898234062545,3.43391793355911,2.53604974893349,2.65914469878416,6.83985719567479,2.04845807004055,-1.13137849083661,1.06941513659068,-1.6340927517943,-0.780894261120053,-0.422537727563508,1.17318035955613,-2.75186612260809,1.29574953140635,2.03185982113956,-2.70042746711887,2.45856543540167,-1.24977286833719,-2.75664064918907,-4.22526434646261,-2.33639379902706,-1.57476314283049,2.39757860031882,0.557256243141696
"cell_1731",47.5839398839208,13.448595205757,2.95368296217247,4.83317423458532,3.19347811859901,-3.52268713962102,-0.063714472115831,-6.85994083034295,-4.61861771085315,-0.322950455791466,4.2760330829631,4.17653788038686,0.984051337559056,-1.33402958397628,3.23751867046494,-2.30767085914893,5.14158734203396,-0.866675391147298,0.667037890788099,3.10087326228238,-1.94760327804279,6.54877363016259,0.199685666767085,-0.0714442471968686,3.0893307924966,2.67647327254653,-1.86319390141294,0.436717742618779,0.807268834165036,-2.4570306781781
"cell_1765",25.4912634996901,3.58221405506563,5.6088809778988,3.24567903719334,2.3873769299666,-3.22874090645887,-0.284258697260675,-4.91723006957042,0.921870442864982,0.0692291448557077,-1.45281081002618,-0.272653521892195,-2.240030583235,-2.24646278250688,0.591676228447828,2.4527528350934,2.00393975757375,-2.43887680522682,3.72574156699246,-1.99769285233022,-2.20173375481743,-5.52179258506107,-0.443083963525512,3.15326799292192,0.804247609428828,1.94280220329339,-2.95191766511368,-0.197077418492436,-0.431345407045787,-3.10927800798577
"cell_1773",22.8775555845943,-0.571150456840836,5.41945587867965,1.93164758330423,-0.232059560871622,-0.561945512994092,-3.88852179996625,6.5030294747547,0.116016297543728,0.457844726036628,-1.89839369502747,1.29086226323861,-2.42271361177191,3.10884601902784,0.0201085448567631,-1.95977667275921,1.8654329168476,-1.16007094687777,0.90499958701005,0.88862003376679,2.68461435352624,-1.04911845071198,5.54617234919374,-6.97710377883264,1.25748248141441,0.666167515043844,0.730100871084312,-1.23714550092407,0.397264843790354,-0.349908157728921
"cell_1789",32.4452992603472,-1.73640829446606,11.9719394423842,4.74518535265233,3.39265901657809,0.347753905433733,-5.56644249042173,-3.24182975790427,2.34972760300292,-1.53054559437694,2.88312213175044,3.24215302012803,1.4159761967024,-0.925531498778207,-2.73959069033026,0.774743845952332,-3.67714133346542,-2.72774019383683,-1.37349123882337,0.0300359155788394,3.96971416233605,-0.636312796069205,-0.131849800860544,1.89061109665546,3.65067865823135,4.90352567518169,2.08202320316336,1.84214077502645,2.22325350239139,4.73022080529288
"cell_1795",31.6375387970196,-1.87575087336558,15.3700040628229,6.27793099944132,4.09869151180073,-0.69908828013501,-6.2202672556952,-0.381961321223582,1.7253078526856,0.222216891960157,-1.29797170070793,4.97586992275259,2.1051445775481,1.91424925163498,0.231215444258653,1.75078788515029,0.435130112997374,1.29290646218159,-2.73684267991466,3.23817568043014,4.08392818672677,-0.557664119374662,5.29954036428263,-1.13024830636697,4.67817327173415,-1.20813027239777,-2.1796113855264,-0.460904279909496,6.21195973949128,-1.80861746710667
"cell_1801",46.3392300586613,19.606575281609,-5.02479945653042,-5.40675232090086,1.13397248250951,23.2637222365931,-2.92205081412138,1.25389680214547,-3.49724626487851,-0.0446589233767542,-1.25423418307058,0.00955195697623401,-0.330961708816466,-2.68536040391635,3.38120962308436,5.65823870998715,-0.0104933549333471,0.838520938998685,-0.849652188080316,0.772413272630679,3.01331034943015,-2.67277152296778,-0.640736014250171,-0.415250364772715,-2.59961071112658,-0.33381902051756,-3.7473255075156,-1.92146344589899,-4.00642481217316,3.59697161235329
"cell_1831",17.4625064525224,-6.75475782432313,-0.947945642599891,9.65630915287615,-7.76259194513199,0.726704302354246,-4.88854753042501,3.54129424828818,1.05033418090268,2.59898435213162,-0.556142096071334,0.233967019132455,-0.589399908946173,0.762542278807167,3.66363704264422,2.19025422845436,-1.67046638326165,1.22313708831812,-2.59851763071336,-0.18910987839246,0.69511291030517,-2.92311745710917,-1.52889706681094,-3.36036633001545,1.74064673275006,-0.302715879973976,-3.66131545011734,3.24427207600306,0.428344592248879,2.15323231696119
"cell_1845",35.3757277521024,7.86418505556666,5.66161140026795,4.87791377771639,2.75102191203381,-2.83637122435643,-3.01268536208344,-2.74388456929369,3.55790057518159,0.536830504606231,1.80989652846739,2.80533802706204,-2.3755657272838,-1.61942362175887,-1.25402518311414,-3.37697975115669,0.35404261950861,1.29094480866037,2.68070343383593,-0.0372635355195791,-1.96772705463218,-0.91440487262852,0.955147346552698,1.02107364573741,0.321141393815324,-5.12144268841954,-2.46097900120737,2.2919547438934,2.1564448148532,-3.11697048806291
"cell_1853",33.0044765231825,-2.45007904089054,12.2308710374563,8.06997966875241,1.56098519096705,0.534875142066188,-6.52673613246302,1.17987659891,3.13867499884684,0.102989005734199,1.4217354734331,2.30224171194602,1.66828981260108,1.43282458700144,-4.28502946614084,0.0311301253060094,-0.472899965100408,3.61266100576579,-1.12187214472111,4.11910969908833,-4.09170895789024,5.61518129537517,1.66489978157273,0.135673745778295,1.68410434768429,1.6395331871452,1.06129051629592,1.72314773927365,-3.78615876585925,0.600398612157115
"cell_1865",50.6264040615001,9.35917001070104,5.58057737823096,-1.45162269383276,4.38785429826397,16.4831925042651,-0.967470792203093,-6.81542091208003,0.976527353119534,-2.43898445772481,0.816788352398495,5.4320752984887,4.83639691829928,3.74297780931367,-4.37275445959604,1.33389191523463,-2.1284417844098,2.25256987853788,7.64102687078506,-3.89144635904553,5.05842794985382,-5.76154289205217,-3.52902337721792,4.35716916358665,1.84628416983251,-3.79927480510993,-2.67276008876882,3.8611926725509,1.15554824965568,-1.53912669661414
"cell_1898",13.088583041872,-5.47143227645231,0.24346806955016,6.45246026812946,-6.95737322548075,0.724128321084679,-1.83599283365899,1.77043790416627,-0.764896883367155,-0.0776503081763302,-0.373433645258788,1.63338297976359,-0.780947476198563,-0.529946182955434,2.08250317451372,0.579082807096628,-2.30127743938751,1.8742888995134,-0.199298447595681,-2.73621593996924,-0.961771831755401,0.0387589441444393,-3.30734902771533,1.85371138217482,2.25935608246386,1.73881740424541,2.24781465678125,1.04419594506077,-1.30747054911541,-1.10476981381586
"cell_1907",23.5881520896996,-6.02130590586603,3.41488491432238,4.30766107950897,-3.19264399945522,-1.10342380576112,-4.46317554409943,3.23465180424349,1.37351708275557,1.20275202361248,0.673568482016895,-3.21878212673694,-0.410153783447574,-2.90926149244955,3.22931610845323,-2.56629711094382,3.55436716035874,-2.22660705923991,-3.29433844555153,4.03456607419894,1.51152364821684,-2.58005220906917,0.616457567287366,1.27957922715404,4.5288769768364,0.02269914408564,-0.190427619338202,-0.584461080433832,-2.53830133369861,0.571016393850589
"cell_1920",31.6395910938498,10.2367902179025,-2.74667722733457,2.90017772452081,-1.36908451481482,-6.96092110736675,-2.46728661432316,-0.300402912970353,-0.00222412469662945,3.36720335319306,-3.29172475562425,-4.23683598959491,-1.89063486641987,-2.15977434312276,0.61366184670546,2.20249990969136,2.91030347864122,-0.0817606219467059,-2.21474787708987,1.75748345585114,0.704962611885108,4.14912139068426,6.73953056881603,0.703777224924143,-1.45609399369011,-3.48796886512234,2.25610639460682,-1.16045599016411,2.50407585235143,-0.737694165161794
"cell_1937",37.0067707326691,12.7735000478469,-3.46424655716295,-1.79842605578484,1.81684630864339,15.4197609500355,-4.93807360011982,-0.293673744985294,-2.23860475883264,2.69355976997659,0.425775094446811,3.60268342414091,1.86714434403485,-2.66816213830187,0.107311840691715,-2.68999016130112,4.72360642810957,-2.32789800454745,2.09438923120598,3.32522770292578,1.30862251289011,-0.757488179233936,2.2177609422118,-5.75036377844384,2.48749642654203,0.403540085975666,1.3099485156275,0.823021574425331,-0.0430281514926973,3.36196109273588
"cell_1953",7.05147340210126,-2.82814102590508,-0.9389223535072,4.90966957234719,-4.47636652092445,0.472294018184749,-2.32510139760497,1.89473037166399,0.600823885553643,1.23333095246608,-2.03856497476661,0.531473132980521,0.853290464981203,-1.70341144415394,0.301219536436365,-0.57455845937689,-0.384001032954681,-2.10946218625861,0.165557139479407,0.281015406477046,1.13116003219895,-0.948340134912743,0.401126269916765,-0.387068643597953,-0.532712482011697,-1.19159948060995,0.620875211264476,-0.216039569702459,-0.36749017330053,-0.377498476573839
"cell_1968",21.9110787085571,-1.13833204787324,7.50612628192818,7.35734578223352,0.210479163607012,1.52033870171042,-5.40063143690294,-0.332660674538258,-0.538015040498778,-0.774202334767903,1.14976155393219,2.52664651666576,0.730728301529892,0.146324851506193,1.07506930034161,-1.79114941990284,-2.74920543221335,1.08904035696177,1.78359075233715,-3.43331024038093,-2.5058678382952,3.44563639953615,1.43936446888081,-0.286431879035754,0.61691558833763,-1.04123650571461,-0.341936650857982,1.01943300624373,-3.29006527782656,1.02343651460933
"cell_1974",12.7451789015502,-0.297006334141662,5.78415132433814,3.38289546217507,1.36643825310087,-0.285607367880105,-3.17750939332119,-0.299932370919102,1.67415342498506,1.19046688340445,0.0373703004221483,1.9279360685834,0.766780268158408,1.95390801855661,-1.40426396841282,-2.91135430719633,0.260339226553275,-0.578645566368206,-0.69480849691233,-2.188622347854,0.193944908506991,0.353955686400992,1.37529628394555,-0.510092649432767,0.395122228531673,2.0333656332567,0.834535187959741,-1.25161180670754,0.654494639396153,0.513205136684015
"cell_1982",56.8154960117756,16.8280075385159,4.51340143464625,-2.36233046611708,5.54566423116265,17.3364991263464,1.53560311927856,-4.96528127082546,-8.80538568948481,-3.68224354859815,-2.67147202073141,-3.01116277902833,-1.39259646369855,-0.961088697768251,-0.629868589312727,-3.14334008311832,-1.89856457685372,1.988769805544,-0.887314927620556,1.17272874821793,1.09738843549439,-5.99300397584701,1.66658948042023,3.86442630901121,-3.21308968140813,5.50398493863978,2.14317014853346,-1.23989343222103,-0.729326495823835,0.481384006295267
"cell_1994",28.2158455483494,-2.90152971100818,8.20166125956617,2.32383802182807,1.16403866015465,1.13227915868722,0.281472339426868,4.10874856924391,-1.59053535497004,-2.24102368546533,-0.147095066794633,-5.45145399406411,-1.13889590505434,-1.3550620889563,2.1972246986287,0.0788278964344747,-8.55990512841651,-2.7757542216877,-0.342122655697543,-0.60052807052295,-3.02507484638442,-0.0357333004490088,-1.91779090734066,2.10887094255017,0.48711029366572,-0.3845038575399,3.60734185650546,0.421620522753424,5.66458666044474,-3.58892957690426
"cell_2008",46.8290715250653,17.9298374613078,-3.20777793515618,-2.87871288892199,3.02153098517286,20.1009396307582,-5.17287668960552,1.57411543306967,-2.09422461796577,-0.16620620225631,-1.09389820136735,2.04203790311578,1.33958434062173,1.94598935642692,-3.71068534325214,3.31938276185444,-1.64578201032297,-3.8524218452119,2.05015574624445,-2.49704328219939,1.13017941552337,0.653859306113275,4.48937447606498,-4.00764857169648,-1.73599832765565,0.123185121944031,-5.39126423413243,1.66585426592001,-2.50779816756434,-2.20578520569672
"cell_2011",31.7084522322827,-3.35498004120615,17.3570824022156,7.03919673228752,5.22272096283014,-0.304883089953458,1.51792392663946,-0.775461589500047,-3.43461452550456,-2.33952954143486,1.2085263725866,-1.53491734311656,-6.7421162713673,-4.72551789245532,-0.746510602825628,0.644451166223227,0.901340886643138,-1.72623104955819,1.8343419670331,5.6861043244025,3.57234585891272,-0.902689620580658,0.413254836303981,-2.29459748871146,-5.74455857690247,-4.19853434287305,3.03264394396552,-1.6792434677477,-3.62196854440188,-2.33237803333341
"cell_2013",44.1122909760272,18.9236735957339,-5.6353028435914,3.06727897141069,1.79555980407519,-2.30904993451769,-2.13833059968464,-0.771719944824002,-4.55330698240172,2.94481559198451,0.0550031295230711,-1.24728765944739,-3.1298980757517,-0.883058206116355,1.12872046257869,-4.68768267973442,4.62370776396753,0.234760720715227,0.0202515546148541,-1.14598193121256,-3.8211948243637,7.38872269295527,-1.0097015696056,-3.78678118987012,0.521583406581332,-3.62821438442538,3.67501999437609,-1.36805142234519,4.3398276850277,-0.956926437789112
"cell_2025",18.8930116461559,-0.968456144777209,7.9782613309315,5.16644043310514,1.57354050221915,-1.04898046006288,-4.8194669063455,0.385936984450449,3.46770635079594,1.70701844396745,-0.640374310854063,3.75923946856773,1.53558807881808,0.528877096603214,-0.869875434165199,1.97069163151274,2.46802821452386,-0.931118240286217,1.78979762867233,-2.4052028162989,-2.87904525790478,0.405928105092843,1.52939574607582,-2.85521919488551,-0.550340158432457,3.62493763933104,-1.65893223008521,-6.12679897252197,0.233772044792788,3.60959275623197
"cell_2042",43.0492287857861,7.57091559347059,-1.95904987194659,3.60382992165896,-2.59156315258052,-2.67048701579881,-3.28305632647539,1.82543001037928,-0.0738217392982853,-0.166388613830668,7.14521001052679,-2.25831015745415,-2.26759078296332,-2.89746750193895,3.1135701506989,-3.29044850619451,2.07163833959854,-2.93978942219314,-4.67924513349726,-1.63905231121621,0.157393581477136,-0.607078437595344,-1.24245573048586,3.00721860183849,1.46662099196388,-4.89721650704026,-3.77715422290696,-1.01232038740386,-9.32965791147483,3.79115340844538
"cell_2044",57.8873660709556,17.932728885136,-1.80673618109542,2.2777708233986,1.66350778124301,-4.35211247901377,4.96963125113413,-8.29439003644625,-2.67600343380194,-3.77317956914582,-1.12723174973431,-0.951656600894873,-0.250043958469941,2.7275023455137,1.49529370043144,0.761398909118671,2.69557130358455,2.17400545630258,4.92840240532959,-0.930683784910112,2.88043298427489,-1.17039245447084,1.11162039558751,-1.21316257045903,-0.174993863101919,-1.20740324905092,3.4553103927552,-0.0976493305227462,-3.23909087675276,0.387209531184158
"cell_2053",26.4579953752905,-2.468890667776,14.9766217603332,5.04668208738491,5.25175206752074,2.07651230681726,0.472797295029555,-6.78089058401036,-0.125090289673151,-0.365831952230566,1.19740156286018,3.9352394392853,2.88787917269827,0.527557283483383,-2.00791139245449,-0.636991274579031,1.81046071727644,3.56664169147248,-4.5681463001227,0.0770613180624886,-2.50303894520231,1.091786888697,-1.18451107149337,-1.92072121857013,-1.60090235542749,-0.420253872624331,-1.96917646097989,2.49477418645746,-0.818938653586901,0.552561768009038
"cell_2058",39.7618512587269,14.81728004848,-5.97026255924474,0.275278502111964,-0.628687934961186,-7.1983132839625,-0.400064450434972,-0.687613016098277,-2.5688698673376,-0.169415880657188,-5.41894595841914,0.880429516189673,0.636684463506564,2.9234571073534,0.469163138649105,2.04929931428358,-3.09248684727883,-3.59356407375377,4.66293765963482,1.53155421943494,-1.94758310688235,0.631314333386897,-2.27388900380776,0.803008915588323,1.7873368195422,1.0106667791264,-3.65723599462891,3.38538872216373,2.67714718677948,-1.02503377627038
"cell_2060",18.9946645672234,-0.378042134301086,5.20089345353131,1.6500658951985,-0.0744733148278189,1.95872671822707,-2.34064831714089,4.38004508558385,-0.809768646758276,-0.375645997737862,-0.664924294417135,0.31040299268621,3.12396766034991,1.96092262255174,-3.26553436381965,-0.382104112173541,0.168073463939378,0.322320473761278,-2.27529571971228,2.17914954896569,1.50575554563013,2.38336384893431,1.11519360509187,-4.22037265473406,-2.84817556554577,0.741340188062724,-0.272881245136612,0.590558816868613,0.227081071892372,1.03155280193482
"cell_2099",27.3769792224112,-3.29332389850758,9.73893590058389,8.56632924643555,-0.53796194250291,1.7625545784075,-3.32466369401305,-1.24547283603943,2.40187398012447,-3.64516818479272,1.45377210830587,0.577077652049472,1.5048760632329,4.47106723247986,-3.75161006086343,-2.20184736975613,3.58406022326784,0.974001599557231,0.403536131238169,-0.319046125971738,-3.55663794915594,-0.786028679413185,0.823961965284842,0.548631850651263,-3.33648655467483,-2.80875792145694,-1.44213777887924,-2.51985288329822,1.32916555120467,4.56661504687223
"cell_2102",26.3724327674243,-2.86584430407523,13.7397685514518,5.89296743528752,2.20856875556734,0.233588011720012,-1.736854805093,2.3998333820838,-1.65663770415001,1.88059077149099,0.210574664834874,-6.62192880058714,-6.30609166559689,-4.28817204065623,-0.153646421622476,4.06074937552691,-5.20306839475949,-5.9847197634384,-2.65281213586061,3.06124661911126,1.15687602627145,-2.99463769990592,0.34990372030011,-2.7363550801031,-0.0591046386750302,4.26712150107037,-1.49602671947598,-4.56107986772196,3.36116581057613,-0.647938248791286
"cell_2109",46.5619859502982,16.9867240501666,-4.73480319345023,-6.17904766537089,2.80201950602527,22.6067528607128,-3.41315662016074,1.52024068776858,-2.07861867975077,-0.732672122223709,-5.1694403192457,-1.33510123217967,0.313359578846759,3.72719821368151,-3.72750710303918,0.768461488744338,1.72845866669812,3.77617441152415,-1.45588529188276,3.68897653267625,-0.700865565354544,-5.2386526072353,-1.16118748710643,1.50846360750252,-6.9218736547153,5.73283334382818,-1.45536361799136,-1.07616266262636,2.93380346386284,2.04017735944545
"cell_2137",29.4794011155576,-1.79850864187895,12.9266581423981,6.48129921380642,4.26605115018186,0.957882409376714,-4.8956671098352,-2.84095772460344,3.15234342747655,3.51466286481284,1.86906382426785,2.82418859098808,2.49247535337946,2.06838597327593,-4.66321666369738,-0.979171712915272,2.92566918968897,-4.06240492976332,-0.47886731743045,-0.876208674074951,-0.0260011018459968,-0.88482120326381,-0.972792832554743,-1.17081610645264,-2.55558129956993,-3.82260504772341,0.655449357881139,2.9088575171369,1.53150490226283,3.11104525812794
"cell_2148",42.1785454636947,8.96649757702669,7.12535077400736,5.49391056508185,4.54163831922158,0.636172927179729,-3.34262546582523,-3.64522249619902,0.458642031000117,6.60985284254648,1.53196345718006,6.02378928438584,1.47181860884212,-0.74231421740856,3.18521866071434,-5.98509773686274,6.39088973621769,-0.190168417600251,-1.0906499297362,4.86217053454109,-4.19123495362326,1.2610137912938,-4.09300431655959,0.703903646496376,-0.565797791921818,-3.9503791981669,-1.47187718280765,-5.00194863957624,-1.25327280400506,-0.674656976132442
"cell_2164",29.6923620277758,12.9781587127483,-3.95501204015629,1.98495141086301,-0.728400051329337,-3.35706380215993,-1.34377303776701,1.69556411259483,-3.29468580568291,3.05726884001575,0.796313421889366,-1.72760323783514,2.22027639340253,-3.35440162184288,-0.15694447872827,1.8724598114647,-0.442733056867519,-2.22417604097589,-0.173673517023307,-1.47853490045742,0.811130602635807,0.524403525260749,-1.00961920597166,2.28553386426983,2.93956286151234,0.711677915866157,-1.1714393203127,1.42157168183606,1.80586106285486,6.98666253625323
"cell_2170",32.4742358993263,-2.92327233541684,14.7637525794845,7.52144323879721,4.87658388888917,0.619700046884752,-5.26369129077041,-4.68014453665852,1.57696527241196,-2.28592450352872,-0.832262408707169,2.22720882391391,1.29219695401659,2.84926405171375,-0.244570595010763,2.95445888041716,-1.54839439556644,2.73772491760882,-2.05058188975408,1.37685758847965,-4.16329586037846,0.814394513312674,-1.44880469585514,-0.166665905389377,1.72338700847994,0.0547800690633404,2.04371208516491,-0.291625763691037,2.55868335274725,-1.52796890260746
"cell_2188",15.9050370500104,5.28108051638151,-1.12943051994153,2.09941839796201,-0.29534904617402,-0.751385578551098,-3.46554617659656,2.1940068259408,-1.55170465215253,1.48679750690981,2.59410241039396,-0.261706890057105,0.433754375636597,-2.01384679112701,-0.51916588367014,3.15779692685506,0.281494396343329,-0.780476035772211,-1.49968406541567,-2.6158708274532,-1.65916935625835,-0.500436636505083,-0.712778764410027,1.96902582024778,-0.743750371127729,-1.29810758316232,1.56853955143951,1.94462862614599,-1.88890018491655,0.843456692125027
"cell_2213",41.2401948115333,16.4949740309102,-6.84537668069829,0.86561446745212,-0.0471536504800497,-3.41687695096734,-1.86952352177705,-3.17283954620662,-4.58198780984641,-1.96131733021029,1.6125584599211,-0.297087502054571,-0.216275277692939,-0.46885728291907,0.423184810597535,-1.36785171488152,6.13389682845362,-0.615516543277547,3.52554477199613,-0.104197631907046,-1.25220785491537,-2.14868729739919,-0.103158408022606,3.29471322854794,0.921337774749743,-0.0612517559855684,5.23546391777131,5.40939301812343,0.189652115293145,4.54794863608534
"cell_2238",27.3438510921201,-1.6693322937953,11.1225629988057,5.86203484675365,3.68457917039615,0.686667952991864,-5.86956819365342,-2.42632497094058,2.30608753879689,-1.5648724799567,1.63546008424892,0.0669906370935286,2.61700574083681,1.64610019426982,-3.04155874645198,0.353323168291727,1.32558253280616,-3.21563788744722,1.27032733077382,-0.719644350793982,-0.306673194218408,-1.51291863801451,-0.737750732632592,-0.270472327831717,2.60184716792236,-2.30967542092135,0.978180281633511,1.57581209444525,-0.816145744718041,0.258523984506715
"cell_2258",12.1344270477378,-5.1535526098204,-1.14618032998185,4.88456564646507,-4.89531150668756,0.0820237661365861,-2.68731091429975,1.48626412422512,-0.678752008832385,-1.29577198257206,-1.71904961388345,0.475517700947937,-1.07190591912632,0.606919282775189,1.42856725771398,-1.7196018904032,-5.07397182875127,0.65832499996541,-0.733348746624047,-0.788424079590714,-0.532714903262762,-0.94527809482991,-0.535116156239658,2.20208092354392,-0.627013691838759,0.527151095267827,-0.0240040990469298,0.275840634852468,-1.56508722592446,1.45591252049981
"cell_2261",21.6136805531767,-9.13454266691266,-2.37488554712638,3.51534014966525,1.81507931688957,0.552006400387103,-1.31193266365361,2.75948717200379,-0.846904991857816,0.105758287645206,-4.4921817803069,0.33298474592031,0.694521978727587,3.49439421435126,2.03404493751077,1.4419485055213,3.86152806527368,1.69309813336173,0.58521386176446,-0.00266875374488753,-0.756389522700809,0.653507460451913,0.350558080965975,0.0791849649344897,-1.10168998716309,1.47550137393907,3.84378935069744,-3.69971025797976,-1.70321889135952,0.451555744124259
"cell_2291",43.1461312378443,-2.80612358113786,20.694176255737,8.68884439128963,8.01041424914895,1.4531140731873,0.779177411020453,-9.76770015148749,-3.11970717393728,-4.81576010751216,0.866757472941126,-2.79436799676199,-5.53883314604229,-5.66115693184265,5.30726009839099,1.94592944580198,2.71686499131112,3.86379433420195,-3.25102732856568,1.63081427899482,-4.05412206232011,-1.1115538478158,-1.22101503617779,-2.17005190433409,-0.107608851751723,-2.18171069428451,1.33147792288112,-1.28234963449616,-1.93168998663069,-3.57097714459893
"cell_2299",30.4944818610207,-4.21111213219442,12.5634790003556,5.81767278705671,1.9187791093895,-0.882517568882476,-2.31798293409308,7.5104593076915,-1.84238558676651,1.57312138405752,-0.677375299908619,-4.18843725445166,-2.05937994347113,2.28452396226361,-1.31551141615605,0.877425465292279,2.28761697875576,-3.40458393716121,-1.66026643187087,-0.660924484555048,-0.117877394033349,0.917872652086447,0.000212079424682449,-2.33258923015596,2.17476813779505,1.57749241580853,-1.62770345765228,-0.595117672689183,2.64965442937209,-0.199448990587473
"cell_2305",19.1381568567184,-1.50724321771934,8.48613955887774,2.54881069515474,2.06491324886201,0.652072455489827,-2.00892897277326,-1.46549477785219,1.65411928210207,4.58891636339969,-1.98799422253869,1.11256446048357,2.90383448231696,0.744991953449098,-2.74062093434765,-1.28430138904372,-1.73167729902021,-3.6204941863087,-0.518814187470193,-0.287057898044726,1.0266382011694,2.41670126306557,2.40829173992739,-1.39169952600236,-1.62208475393633,-5.7031463818809,0.0384324999188972,-0.57985205105153,-1.01270375061066,1.06939509553073
"cell_2310",24.6987971993542,6.08563430821202,-1.09025615678938,2.69521842224094,-0.948125928459366,-4.6998395673468,-2.50367320941182,1.47257742480746,0.0887353184627817,-0.856141436933724,2.72998641949774,-0.486121756560883,0.790806073208494,-5.02249458465056,0.774621005913724,1.37326799229781,-0.164262103693875,0.12254925898478,-2.69626720791397,-0.434466543927192,-4.9075883081993,-1.28036850375375,1.12173145227855,-4.239352647089,1.82561321435102,1.69713481895404,-0.144977097812334,-0.0238680800829138,0.681289153801448,-0.365767342876592
